{"layers":[{"out_depth":3,"out_sx":32,"out_sy":32,"layer_type":"input"},{"sx":5,"sy":5,"stride":1,"in_depth":3,"out_depth":16,"out_sx":32,"out_sy":32,"layer_type":"conv","l1_decay_mul":0,"l2_decay_mul":1,"pad":2,"filters":[{"sx":5,"sy":5,"depth":3,"w":{"0":-0.09005306609694115,"1":-0.206498820577689,"2":0.12180460912688075,"3":-0.1730639420371582,"4":0.005936960405624483,"5":-0.0355728040774729,"6":-0.1321845546227485,"7":0.10933652359313852,"8":0.019973136814111878,"9":0.0782559423641814,"10":0.1796461187099538,"11":-0.07213289026480686,"12":-0.16231715946087225,"13":0.10586533973584117,"14":0.21219540153870015,"15":-0.11824116315193645,"16":-0.07896913195974037,"17":0.017768528258962028,"18":0.008465822406438884,"19":0.06070224603427099,"20":0.17237900001485512,"21":-0.30664260750643896,"22":-0.06892158786678554,"23":0.19594760612256548,"24":-0.09626127396291563,"25":0.22413470757361376,"26":0.042026468953371594,"27":-0.029670865182817717,"28":-0.0938488348169633,"29":-0.00950403938891748,"30":-0.04024695386747932,"31":-0.04297637771395281,"32":0.13822077927129428,"33":0.07719712594799662,"34":0.17314753612250466,"35":0.018497497955276606,"36":0.011236563328474815,"37":-0.1110664885473853,"38":0.04159164031137253,"39":-0.01395028116709364,"40":0.028907759952854488,"41":0.23068045436569654,"42":0.09630555795756959,"43":-0.15024086071964599,"44":0.10078448247042043,"45":-0.1154468808035283,"46":-0.005853012883661492,"47":-0.029907545865006574,"48":-0.07688857470928036,"49":-0.022684326646749527,"50":0.26926706069165895,"51":-0.011337367820003724,"52":0.0068138678776912005,"53":0.1471561916471145,"54":-0.16076459842826804,"55":0.1396090247923923,"56":-0.008581554348189779,"57":0.09678019759973275,"58":-0.06892764135848353,"59":0.06285142194424753,"60":-0.07202058841537831,"61":0.11224833339666326,"62":-0.053337210723111095,"63":0.05935308633787547,"64":-0.19793752397746545,"65":-0.04563142174653832,"66":-0.025161527152773058,"67":0.13526330352700663,"68":-0.257358039891145,"69":0.007441994490608369,"70":0.01569507811641963,"71":-0.06015355941067408,"72":0.014761308935550034,"73":-0.06324704949911818,"74":0.10336949897199944}},{"sx":5,"sy":5,"depth":3,"w":{"0":0.0845427330384768,"1":0.18841358743234393,"2":0.29017282151527546,"3":0.00557795235832232,"4":0.05191220732272455,"5":0.19983086651441606,"6":-0.11726571723592233,"7":0.03899201046322653,"8":0.052006142825450644,"9":-0.16345791677086682,"10":0.08322689557889391,"11":0.14268706950962068,"12":-0.11346403262639912,"13":0.07770537216374414,"14":0.24416462157350421,"15":-0.3120055545811334,"16":0.014977711350924863,"17":0.021305780325899772,"18":-0.027461802416822924,"19":-0.08665475686578412,"20":0.09552227051819603,"21":-0.01010785120431518,"22":-0.13972115142053898,"23":0.16301682872588374,"24":-0.0940384535055641,"25":0.048713201151485974,"26":0.2607811764890108,"27":-0.02389965448844523,"28":-0.020039176856412003,"29":-0.002414334694832913,"30":0.09885843970767924,"31":-0.04938942136695344,"32":0.18048533375654488,"33":-0.023237661677181862,"34":0.21368364161083547,"35":-0.11741939662223928,"36":0.20997021155457288,"37":-0.10543185796303745,"38":0.051632868728008464,"39":0.06622493989579578,"40":0.036016847151461764,"41":-0.04995190609323497,"42":-0.1065630989806002,"43":0.12496203174298637,"44":0.15149186259025138,"45":-0.09826949534054831,"46":-0.043387817410746626,"47":0.14101095062552227,"48":-0.03076899558087387,"49":0.25527311873368963,"50":0.11614304416452437,"51":-0.16457589117300883,"52":-0.05140581708089711,"53":0.06980866481448479,"54":0.03868059820453644,"55":0.07736191771157538,"56":0.13458887724645222,"57":-0.11376284383183512,"58":-0.09906838960026566,"59":0.14706589510170806,"60":0.01175724445003444,"61":-0.011417990916665085,"62":0.07239778447352324,"63":-0.2486884221148082,"64":-0.17516239366700342,"65":0.0714190253017836,"66":-0.005173241905027099,"67":-0.017402196864061244,"68":-0.09613895948703695,"69":-0.03193146986399185,"70":-0.01279438729890935,"71":0.15915899370867365,"72":-0.07003678556255989,"73":-0.0077384390332195605,"74":-0.030623695928915857}},{"sx":5,"sy":5,"depth":3,"w":{"0":-0.06511055557938798,"1":-0.15077857660430477,"2":-0.10886367975400912,"3":0.04391529673308191,"4":0.12145871379215001,"5":0.12737080764214495,"6":0.22902974295633513,"7":0.15792778432945048,"8":0.10367583344119659,"9":-0.05776984938576065,"10":-0.15261980950518406,"11":-0.06642769519240382,"12":-0.08094831917715173,"13":0.10890117076791764,"14":0.18504762576205416,"15":-0.00673290542393993,"16":0.03908956979040692,"17":0.2947144297004199,"18":-0.02051162652182971,"19":0.14440710828421718,"20":0.020578241351361458,"21":-0.0042390022852932295,"22":-0.3482742025702986,"23":-0.18206835669484506,"24":0.0800736908951941,"25":0.029051423376612377,"26":0.02755266224427113,"27":0.01361689925486423,"28":0.11258241975869092,"29":-0.08703358694147735,"30":0.07239461310910174,"31":0.15338295704347205,"32":-0.1982780631684157,"33":0.13215911430734562,"34":-0.08072730364865788,"35":0.15635873452265103,"36":-0.07730371640343635,"37":-0.05760151568375844,"38":0.08477185699307689,"39":-0.003560813773245123,"40":-0.05783439065314622,"41":-0.11894502703721146,"42":-0.3335942121873994,"43":-0.10026058515289109,"44":0.043156438259523484,"45":-0.12286582857452903,"46":0.04232683306251164,"47":-0.044013616463154284,"48":-0.11373236701009308,"49":0.09976027592381273,"50":-0.038440278157324204,"51":0.07806036018983922,"52":-0.0808492122666927,"53":0.027464035223791223,"54":-0.1439785723894872,"55":0.0949484960739562,"56":0.17283615407885478,"57":-0.204149706990942,"58":0.0356552332743503,"59":0.14715177246301422,"60":-0.20850171633915227,"61":0.014819234338709257,"62":0.19063874602403222,"63":-0.05496965895271969,"64":0.05136846564894036,"65":0.07740938509938823,"66":-0.019978269332257933,"67":0.127156718694785,"68":0.16128339728977256,"69":-0.08005475666715976,"70":-0.10043966763474091,"71":-0.11210195692236032,"72":0.10255143365089317,"73":-0.1143623547097032,"74":0.08468407764236002}},{"sx":5,"sy":5,"depth":3,"w":{"0":-0.036001426411400264,"1":0.11698398384491843,"2":-0.08564837830234527,"3":0.1375254630942857,"4":0.0630348743082442,"5":-0.14753663565761516,"6":0.17099493517501466,"7":0.10477122773708612,"8":0.13538387334575835,"9":0.12410251722424635,"10":-0.011868142141180638,"11":-0.032626690018841525,"12":-0.02000218267485241,"13":-0.0480185143113678,"14":-0.07672195721645525,"15":-0.15627909116620364,"16":0.07044444594976336,"17":-0.0005189211243735121,"18":0.03964526303720279,"19":-0.03921035608229475,"20":-0.11745366164873657,"21":0.0011954567760823743,"22":0.256158426270699,"23":-0.07653701822101781,"24":-0.016740851784796756,"25":-0.02253774846275272,"26":0.13457495097301694,"27":0.18345422648385068,"28":-0.18520848697532954,"29":0.038775254660454575,"30":-0.10817988878982294,"31":0.14061908437535284,"32":0.0026768625928711405,"33":-0.06951922350246173,"34":0.08298591982168727,"35":-0.027689217243268078,"36":-0.07850672857815542,"37":0.05173217647155817,"38":0.12041984642262606,"39":-0.03373453817792976,"40":-0.00494604789015964,"41":-0.03999596320611605,"42":0.033743293177063656,"43":-0.1040476284100728,"44":0.07949861536797709,"45":-0.15149672612274903,"46":-0.057061970317605355,"47":0.08635397281583347,"48":0.10619123230833119,"49":-0.0023360548031522597,"50":-0.11240301519397186,"51":0.025008867514544363,"52":-0.011311673744272647,"53":-0.03802325819783378,"54":0.10478642837347199,"55":0.03262525949286452,"56":0.25576610691618895,"57":0.09005858543533282,"58":-0.24808129867134895,"59":0.012833195075834487,"60":-0.0009856927048034732,"61":0.279403473958045,"62":0.04716646346336214,"63":-0.017541296629992088,"64":-0.0679599432502216,"65":-0.13257928454612292,"66":0.06328034234046193,"67":-0.0011884981230288535,"68":0.031207206776473834,"69":0.03833968408881905,"70":-0.1862034830499708,"71":0.0594495095749252,"72":0.032449145416386424,"73":-0.13413952394916104,"74":-0.10713582727080648}},{"sx":5,"sy":5,"depth":3,"w":{"0":-0.026934969057158503,"1":0.0995803020847385,"2":-0.03000165507336766,"3":-0.07392666762092358,"4":0.06490372253551978,"5":0.028939729550143744,"6":0.09782052567066349,"7":0.051259124284374166,"8":-0.03216088076025346,"9":-0.09778168261813272,"10":-0.14112112801199372,"11":-0.042245434945013115,"12":-0.020142897674768716,"13":-0.12425778915202618,"14":-0.05128988582864252,"15":0.06249791540116302,"16":0.26860772248945936,"17":-0.22659373822649492,"18":0.050823701965489194,"19":0.0315401299059945,"20":-0.06428801443957148,"21":0.21129597002540293,"22":0.01990831456083162,"23":0.052294016111959274,"24":-0.05185812400113235,"25":-0.1951234547007256,"26":0.1545782900983975,"27":-0.029007895890201404,"28":-0.03158272270017834,"29":0.02838902636378593,"30":0.11862173814642142,"31":-0.2815471729491279,"32":0.176176747494602,"33":-0.023343683467867273,"34":-0.16126388430508926,"35":-0.06481755686404259,"36":0.1693651198005774,"37":0.09019070646509068,"38":0.1223946870127194,"39":0.029570286553622926,"40":-0.06865667160678583,"41":0.043503310710493244,"42":-0.10477745133516937,"43":-0.10676373945404029,"44":0.1889755697192004,"45":0.004291256130012059,"46":-0.08347957470149259,"47":0.014662254070033307,"48":0.10254882797913879,"49":-0.1362785160194781,"50":0.04442372180602942,"51":0.0676673720336964,"52":-0.01754005605809657,"53":0.05629427579480624,"54":0.01709701719045163,"55":-0.13111975517880195,"56":0.027523533126807446,"57":0.14227843169113671,"58":-0.10855631016183968,"59":0.06347243496568875,"60":0.1046191493082003,"61":-0.015542998618250016,"62":-0.12904087976044487,"63":0.03165060306407836,"64":0.0683825895887405,"65":0.025258416689095127,"66":-0.0013266728363674877,"67":0.012197174359468304,"68":0.06507915870416887,"69":0.09931194301967179,"70":-0.11769235435574939,"71":-0.13969606377974686,"72":-0.02929443536779958,"73":0.16255586946756267,"74":0.0409259945524721}},{"sx":5,"sy":5,"depth":3,"w":{"0":0.06799632686159036,"1":-0.041752958744010756,"2":-0.10492543749596964,"3":0.07081504258887492,"4":-0.08247909661268768,"5":0.3601884875500755,"6":-0.014938688546562818,"7":0.05930066845335259,"8":0.26607654915378204,"9":0.14909983384413258,"10":-0.012847043694412278,"11":0.0625812270096369,"12":-0.07724326749491199,"13":-0.08038735122932171,"14":0.22967070361514874,"15":-0.22702256242842542,"16":0.0456318460103091,"17":-0.12289925468970515,"18":-0.1952388245016673,"19":0.1519521538828078,"20":-0.06144323812176334,"21":0.017716398689782382,"22":-0.048697605938070494,"23":-0.02676175354491087,"24":0.1135367621941333,"25":-0.19977671284701976,"26":0.11294566779565338,"27":-0.05153123870023117,"28":0.021559240768856652,"29":-0.0061313308965655865,"30":-0.07571626002029559,"31":-0.06002486406086165,"32":0.132100625247126,"33":-0.041415971736209534,"34":0.0006429724654583371,"35":-0.08564583378312325,"36":-0.02667423572570833,"37":-0.028649830720876457,"38":0.04200617702755992,"39":-0.13652498092477874,"40":-0.03927917210730679,"41":0.16253747440862915,"42":0.05233626523146141,"43":0.06623671581884123,"44":0.33007481201042016,"45":-0.12923155720471027,"46":-0.004504111215550441,"47":0.006449030519369411,"48":0.1572104941592776,"49":-0.0776520368922838,"50":0.018502995253253697,"51":0.22243202570210235,"52":-0.014515503501559928,"53":0.026841720678631786,"54":-0.11274191690708661,"55":0.10594079029140153,"56":0.34900258872295054,"57":0.13148614287222882,"58":-0.005975854634142525,"59":0.2776417463183304,"60":-0.0938261754951212,"61":0.04586676674557098,"62":0.1147214583086696,"63":-0.1151203114775268,"64":-0.04777212847998533,"65":0.34766430302555734,"66":-0.04134467325082394,"67":-0.016418545730899462,"68":0.25183725075968877,"69":-0.014890412355602053,"70":-0.1744380453584629,"71":0.11838726030040742,"72":-0.15257261561821273,"73":0.12068455546688803,"74":0.08925279099826633}},{"sx":5,"sy":5,"depth":3,"w":{"0":-0.04980215086122663,"1":-0.012798897207841211,"2":-0.03674828270394097,"3":-0.006100343606359742,"4":0.08106991044519087,"5":0.06813798088441826,"6":-0.10744497270057676,"7":-0.03646773567313836,"8":-0.09680863641927459,"9":-0.0684469434202979,"10":-0.08989727925531404,"11":0.0981555510305371,"12":-0.10523492384546566,"13":-0.0624433337984259,"14":-0.009525082431004047,"15":-0.16991992168403589,"16":-0.05225392062779151,"17":0.09430412181289474,"18":0.22918116679349906,"19":0.13983297866035835,"20":-0.07396513369215094,"21":0.05444684319229875,"22":0.16292015085688763,"23":0.17923931174729613,"24":0.03920598816867441,"25":-0.1587083408993042,"26":0.19264986571539888,"27":0.18098366327327844,"28":-0.08158745559945846,"29":-0.08714610311243998,"30":-0.11479613852106012,"31":-0.02776030542913449,"32":0.08201524176502727,"33":0.042414867663923134,"34":-0.11419500955780276,"35":-0.07900797388058534,"36":0.007431867172548785,"37":0.05918013704130727,"38":0.04327654580665924,"39":-0.1711878287506803,"40":-0.06166252769021961,"41":0.07388896093083622,"42":-0.06344102940840021,"43":-0.0693727588858543,"44":0.08017189415285018,"45":-0.0045731918689076185,"46":-0.1302787209821138,"47":0.009044398659839706,"48":0.058524321330800336,"49":-0.07384255034502153,"50":-0.014685726222222343,"51":0.09911229817012965,"52":-0.10077422565450339,"53":0.06267477761613423,"54":-0.1243808067111269,"55":-0.12120057707872475,"56":-0.009276913245301714,"57":-0.08903544318969758,"58":-0.15008890148656961,"59":-0.05202949273496347,"60":0.0961593332926766,"61":-0.17046473256827932,"62":-0.08696941160453285,"63":0.004782265731722312,"64":-0.05788182093096933,"65":0.3547506995385151,"66":-0.14498527388824217,"67":0.0207266985302377,"68":0.11568224008181793,"69":0.11112793894712314,"70":0.013197674387557454,"71":-0.07897130997203104,"72":-0.029011672676182786,"73":-0.1419640599960291,"74":0.16801256305007498}},{"sx":5,"sy":5,"depth":3,"w":{"0":0.07627764312052275,"1":-0.009921945366321839,"2":-0.09449451706371181,"3":0.18050596957819656,"4":0.06894191782009122,"5":-0.05582372903660582,"6":-0.007213131614417271,"7":0.1445528639310475,"8":-0.08612249342607786,"9":0.00021623952513302454,"10":-0.003298590833601712,"11":-0.0378720384471543,"12":0.04795186298108261,"13":-0.1361729447514897,"14":-0.09610854777758591,"15":-0.087609408830309,"16":-0.11403471978909681,"17":-0.235522355651089,"18":0.06887297693966149,"19":0.17607266001577815,"20":-0.0036638465062685476,"21":-0.1706274906435283,"22":0.24615139261982927,"23":0.023844594632823398,"24":0.10269553366986313,"25":-0.017840880961852903,"26":-0.05586653954413043,"27":0.0670206418438821,"28":-0.14891237288986597,"29":-0.040222607720676956,"30":-0.1209113654830914,"31":0.17482579112014487,"32":0.11085330257978342,"33":0.1988133442282642,"34":-0.021246387489300102,"35":-0.049604517120518526,"36":-0.11800117695316246,"37":-0.1051867458398349,"38":0.13868376280394087,"39":0.06782896039596102,"40":0.08418432533888773,"41":-0.1705647303568256,"42":-0.19153790874376203,"43":0.0798270348945657,"44":0.07465701555174219,"45":-0.014134381529101701,"46":-0.03229479105893035,"47":-0.21345160275350308,"48":0.010553321515812083,"49":0.11880474803205454,"50":-0.02362840244250796,"51":-0.0719049814916887,"52":-0.027077743777812028,"53":-0.013413468875549466,"54":-0.13546477997512535,"55":0.017345237896744334,"56":0.04980975025579283,"57":0.20920932003714976,"58":-0.004191502073603952,"59":0.2759288817442058,"60":-0.0500952408264284,"61":-0.026395524770698002,"62":-0.08017679455355908,"63":-0.28391211590480464,"64":0.07885642042252225,"65":-0.015086167690278996,"66":0.08743931298897462,"67":0.19277656654372197,"68":-0.005435446240277633,"69":0.11898399030871551,"70":0.05967836186403951,"71":-0.12269499909039923,"72":0.2092481844937237,"73":0.12462162117701843,"74":0.00018440976812473414}},{"sx":5,"sy":5,"depth":3,"w":{"0":-0.1228829981646656,"1":0.0676011362454949,"2":-0.020257695788551966,"3":-0.21307109507656277,"4":-0.05255343053727528,"5":-0.05415213334459104,"6":0.08218080656217772,"7":0.018287576829970106,"8":-0.20659196137681135,"9":0.05415652484777948,"10":0.002152513617042672,"11":0.1423624169616478,"12":-0.2502534874934855,"13":-0.021061701692899004,"14":0.07448081535906298,"15":-0.1110649269276701,"16":-0.019658480195708556,"17":-0.21069958381549062,"18":-0.010216197321570569,"19":0.050292011411819465,"20":0.1920867358191552,"21":-0.12259012699123982,"22":0.09881325604959139,"23":-0.04185306328942472,"24":0.03174401138346817,"25":0.14659666058928042,"26":0.051121540474713914,"27":-0.1342217332307659,"28":0.05866317766457114,"29":-0.05858160075336279,"30":0.0894495555269097,"31":-0.17118390800458577,"32":-0.07067119058498213,"33":0.021778219850351832,"34":0.23564633504633517,"35":-0.029558869684634306,"36":0.19335903893577983,"37":0.0635553067124572,"38":-0.054925886598002724,"39":-0.018414723120120192,"40":-0.12420213263952717,"41":-0.17718737821999636,"42":0.04168246565795118,"43":-0.07516603887196253,"44":-0.10420870480546855,"45":-0.017363728206725423,"46":-0.08736036908512156,"47":0.10248672983710215,"48":0.029799638213996574,"49":0.10786241908434586,"50":-0.12161390250073977,"51":0.06171587220937276,"52":-0.2742379765947649,"53":0.21903060857981055,"54":0.04569903060803147,"55":0.09991268290340138,"56":0.14616702057171224,"57":0.07930228062461978,"58":-0.17916999001101624,"59":-0.025706560275375313,"60":0.0499959936033378,"61":0.16472564929846645,"62":0.011981520883984327,"63":0.1107317927335885,"64":-0.19581289299591675,"65":-0.25846337033979505,"66":0.06371049852632439,"67":0.02185523169652987,"68":0.09413579237698397,"69":-0.019781179663148258,"70":-0.008105382127165706,"71":0.06809911705753131,"72":-0.043719848917405185,"73":0.08724353807292834,"74":-0.13839181279026108}},{"sx":5,"sy":5,"depth":3,"w":{"0":0.024960277956687166,"1":-0.04052801159996489,"2":0.13585720937434279,"3":0.00013232996478883502,"4":0.072348285560233,"5":-0.008118371698918934,"6":0.24376824105966352,"7":0.04986676712999228,"8":-0.2830258605606989,"9":0.06723917640695039,"10":0.03191229075320144,"11":-0.1464693648039262,"12":-0.010328950372193748,"13":0.07839094254069122,"14":0.02198431830023571,"15":-0.07191968570718953,"16":-0.04271505767733957,"17":-0.13842164306368945,"18":-0.04879278333490831,"19":-0.05750820441430107,"20":0.10179244563268795,"21":-0.17937736348093436,"22":-0.16193417269342303,"23":-0.1156160687020824,"24":0.06333598502446322,"25":0.016013867765993204,"26":-0.18151626010532898,"27":0.05013679772244821,"28":-0.08053779740034593,"29":0.07884473566339449,"30":0.10129449622999473,"31":-0.02769714037301427,"32":-0.06948413823267163,"33":-0.025414846094883484,"34":0.09864888299459919,"35":0.05258838802426355,"36":0.018762055361420626,"37":0.03912661940752536,"38":-0.04120327202359539,"39":-0.09162414801109173,"40":0.08262121680038197,"41":0.08696370023442142,"42":0.08722590482085545,"43":0.2615543448454468,"44":-0.030729881405137112,"45":-0.1064792277889889,"46":0.012359123536071525,"47":-0.09004783967912339,"48":-0.02335702925919112,"49":0.0364658329454762,"50":-0.10947687706548803,"51":0.1074411869076956,"52":0.0216127259464974,"53":0.20969730714583484,"54":0.04101615189556521,"55":0.07122702127305763,"56":0.08467266765976524,"57":0.09594030381279114,"58":0.06711896446760278,"59":-0.021024049728074198,"60":0.017539117008840553,"61":0.10334859577686648,"62":-0.14417594382780913,"63":0.0024497703201975807,"64":-0.09625377040539224,"65":-0.040112872748781385,"66":0.0588562795775045,"67":-0.10490773002715297,"68":-0.012768779344188533,"69":-0.08237884300994562,"70":0.033994168573749796,"71":-0.12958004007120305,"72":0.16302508395121892,"73":-0.05435840300423313,"74":0.019171069504835297}},{"sx":5,"sy":5,"depth":3,"w":{"0":0.09165765506846693,"1":0.02495449975187669,"2":-0.06365425353696338,"3":0.16135123606782842,"4":0.04334984240626456,"5":-0.0926729806316777,"6":-0.09651106773107579,"7":-0.10004031899800118,"8":0.19147602244614678,"9":-0.09354015543972165,"10":-0.010839244548820405,"11":-0.07723791784635707,"12":-0.18068947737487517,"13":0.06339381603833615,"14":-0.27334113893134326,"15":-0.00870640121471176,"16":-0.0379575081129922,"17":-0.014056462176352091,"18":0.12615701800701715,"19":-0.050844663009084426,"20":-0.05472101509957644,"21":0.057910178900282175,"22":0.09007778277318312,"23":-0.04354293980246989,"24":0.019598988305019636,"25":0.01918569216844601,"26":0.20322646025351382,"27":-0.19233799733282825,"28":0.004463945941045143,"29":0.18708935938328317,"30":-0.17713972236530826,"31":0.16913661256139156,"32":-0.20437317126616705,"33":0.10562809622599902,"34":-0.025685030646556726,"35":0.17279719550377248,"36":-0.024106218146197553,"37":-0.019777155737311126,"38":0.06799724152974622,"39":0.03775081986500422,"40":0.12205265031593333,"41":-0.09761839549012327,"42":-0.0016776969069698397,"43":-0.1399674575832019,"44":0.03575436807755761,"45":-0.10890466563724552,"46":0.11705215303405038,"47":-0.11078596530265397,"48":0.028337436599046,"49":0.03661099403515969,"50":-0.034382407413425166,"51":-0.06144957843928294,"52":0.07580201977061615,"53":-0.04802218318322003,"54":-0.06989688926456733,"55":0.06711029825208534,"56":0.08008853580067714,"57":0.004404182609133767,"58":-0.07146621724359885,"59":0.02694335126590123,"60":0.08382258312161645,"61":0.15454498757650767,"62":-0.06389942405069753,"63":-0.018656453501073485,"64":-0.02157217922615999,"65":0.046619916835543805,"66":0.08194363113662541,"67":-0.028569493676882947,"68":-0.20112531923694266,"69":0.10039935818482522,"70":0.04430805524505246,"71":-0.08389458752118789,"72":0.04747493705047658,"73":-0.12437357130139211,"74":-0.0430610744847844}},{"sx":5,"sy":5,"depth":3,"w":{"0":0.0374385447956842,"1":-0.19102716163614583,"2":0.09584514173732794,"3":-0.07488407083062308,"4":-0.09165609247431045,"5":-0.05296935350481294,"6":0.16160566251670702,"7":0.14845839349638537,"8":-0.031698702322762125,"9":-0.07508931189922939,"10":0.02618566952039756,"11":0.009186017440176261,"12":-0.049074036224549526,"13":0.003269843682353637,"14":-0.01889944946277937,"15":-0.1115077396899567,"16":-0.10271343826095329,"17":0.1200794088727073,"18":0.09657389463582028,"19":-0.18488154925391226,"20":0.04857210892545191,"21":0.05766766314300222,"22":-0.004502463192084846,"23":-0.001124136318766459,"24":0.18614124586682296,"25":-0.0787126586202317,"26":-0.028558369580906257,"27":0.06184320111322743,"28":0.0017371662714467256,"29":-0.046322641029415634,"30":-0.05218380699476145,"31":-0.13525471950153312,"32":0.04315021492892708,"33":0.11936592136745679,"34":-0.03154447222588312,"35":0.0949710884212912,"36":-0.17666560557333755,"37":-0.1263256624319183,"38":-0.16564637497214368,"39":-0.13751637223825408,"40":-0.04940652972928667,"41":0.059774868076393615,"42":-0.126120876448757,"43":-0.012774682712419261,"44":-0.07456263311416682,"45":-0.04053997628687603,"46":0.16695395750218886,"47":-0.12557431905409858,"48":0.03778472364354079,"49":0.0589543179157039,"50":-0.14596795963027212,"51":-0.012540903336056211,"52":-0.013712375895232509,"53":0.11739711774811117,"54":0.13701377047400976,"55":-0.016270559611216713,"56":-0.14585507480028917,"57":0.025031040324257483,"58":0.025643770681940157,"59":0.0864529857677328,"60":0.04414353503736681,"61":0.005253019680312623,"62":-0.14657701600605003,"63":0.16466689407509555,"64":-0.16236567765134685,"65":-0.02978377215962207,"66":0.09414304645774799,"67":0.08639059597956493,"68":-0.0636002753749701,"69":0.08348946947480727,"70":0.08459785278182133,"71":-0.08723715557692949,"72":-0.08102737809911478,"73":3.919358288926672e-7,"74":-0.04645685855809552}},{"sx":5,"sy":5,"depth":3,"w":{"0":0.08592270824771828,"1":0.04065314982832985,"2":0.021072608399713366,"3":-0.1525140120062913,"4":0.16797871849442939,"5":-0.002270201266996022,"6":0.08518287826528453,"7":0.01060873678722021,"8":0.02623451691697951,"9":0.0074488981797388686,"10":-0.0142133431044167,"11":0.08610777121565151,"12":0.0985330984471104,"13":-0.041751684646184915,"14":0.13309159561299805,"15":0.09571395647435993,"16":0.05055485166614877,"17":0.052902888130260735,"18":0.08265331023253529,"19":0.13792094050523798,"20":0.1583194945997696,"21":0.14618806507934604,"22":-0.026642369023292763,"23":0.04112002711018452,"24":-0.11827587754073471,"25":0.023525186095516716,"26":0.10105663300366605,"27":0.04048180799482719,"28":0.03767129622627146,"29":-0.08816474389566965,"30":0.01924723643809403,"31":-0.1330674147688094,"32":0.10950191349757883,"33":-0.12416036525024593,"34":0.10352277070520058,"35":0.055244231213169445,"36":0.11332837894872208,"37":-0.11654856866714293,"38":0.11838586324040881,"39":-0.1250833546144097,"40":0.08341436223329288,"41":0.19557551077107013,"42":-0.07028648011532927,"43":0.03885648597294136,"44":0.07010794734505688,"45":-0.07199028993773113,"46":-0.18028755670788746,"47":0.15221139580276602,"48":-0.02287425513039707,"49":-0.022411553463023686,"50":0.03433114015159276,"51":-0.24599395232443505,"52":-0.11074671727575443,"53":0.018665876769565236,"54":-0.1780293343142582,"55":0.17052239141336803,"56":0.04886236685449722,"57":-0.08265703430581746,"58":0.18685173795316387,"59":0.09395615955345733,"60":-0.2569833507331185,"61":-0.1502199345413132,"62":-0.0018475557752257643,"63":-0.1302675877683624,"64":-0.016794018755676654,"65":0.1640858456510158,"66":0.040014857708452596,"67":0.08038685318383426,"68":0.1329163149706267,"69":-0.13450466990885726,"70":0.09130881485530179,"71":0.16796106711961784,"72":0.014098348028237452,"73":-0.0592488929771384,"74":-0.005621899054594686}},{"sx":5,"sy":5,"depth":3,"w":{"0":0.012482808169119826,"1":-0.039965683575685626,"2":0.08362178324845712,"3":0.0671272173672903,"4":-0.09959498992349075,"5":-0.09927237745226307,"6":0.008307210201771094,"7":-0.038673593382414405,"8":0.044775825919836275,"9":0.08942920852847962,"10":-0.05218587380060892,"11":0.18654084557753828,"12":-0.15084257847833127,"13":-0.02727186062355147,"14":0.03721465825296125,"15":0.003925787956650075,"16":0.049340046007930856,"17":-0.23639448091511917,"18":0.10470549041348963,"19":-0.12513204556117213,"20":0.1336910548946939,"21":-0.11495943716775547,"22":0.06549313866345345,"23":-0.08697945295282816,"24":-0.024838215868681096,"25":0.059950730154144725,"26":0.11319283098194799,"27":0.03348659041563441,"28":-0.0869232671138474,"29":0.09609634790990225,"30":0.23760075113913073,"31":-0.2194776620215843,"32":-0.051428273487872274,"33":0.09534520258564506,"34":-0.10698547406192382,"35":0.07526118560570734,"36":0.01293930631465042,"37":0.1104946366926979,"38":-0.076495583965372,"39":-0.056351940598376365,"40":-0.03466183976956832,"41":-0.05952116677058999,"42":-0.057285179119168875,"43":-0.005442008406674306,"44":0.11908962280734176,"45":-0.013318983245635154,"46":0.0019143559702878134,"47":0.14756527498466462,"48":0.16778426639412578,"49":-0.12971994581169927,"50":-0.04471385865906139,"51":-0.08069017270771446,"52":0.1309609995207278,"53":-0.16411342549911745,"54":0.11815477930588002,"55":-0.03998611779869093,"56":0.04654352157002613,"57":0.04876086013482256,"58":-0.1924038289089047,"59":0.161023191063262,"60":0.15933771518710482,"61":0.028927641380478875,"62":-0.06656602814241072,"63":0.10920906025073605,"64":-0.15712197180434698,"65":0.0012031883724163343,"66":-0.1042620487524852,"67":-0.023283573472367838,"68":0.12462028532802731,"69":-0.015682158772247816,"70":0.06391732062244143,"71":-0.08196830046764471,"72":0.04502635703412831,"73":0.012486358526556524,"74":0.012756777929988446}},{"sx":5,"sy":5,"depth":3,"w":{"0":0.04595656062647043,"1":-0.13910708384103151,"2":-0.17669044292692518,"3":0.16315120553502466,"4":0.021596036318152333,"5":0.04633115285319785,"6":-0.15292190513594914,"7":-0.021166381199956688,"8":0.08809855844081992,"9":-0.07117496567051754,"10":0.0016969421821994412,"11":0.13194014693917128,"12":0.056157538687056016,"13":0.12734499533053953,"14":-0.12674348739011163,"15":0.0238478853182607,"16":0.19632516351879076,"17":-0.012326671814737577,"18":-0.1015251174599223,"19":-0.11958563371811702,"20":0.04549940033799214,"21":-0.08030487833968417,"22":0.007935186631168021,"23":-0.1330565825990223,"24":0.01985942501202242,"25":0.198755809789156,"26":0.04603041838821665,"27":0.06590364663624838,"28":-0.048131404097298325,"29":-0.0481132875228644,"30":0.008189127315987805,"31":0.14847247662003013,"32":0.18855045197096945,"33":-0.08805700498503101,"34":-0.20446080772404215,"35":-0.02784938587190945,"36":0.017345549091834694,"37":0.09152548492425173,"38":-0.08641406888529035,"39":-0.020646158294115455,"40":0.01306010136980659,"41":-0.02781317627421201,"42":-0.1337186294754263,"43":0.13098531496711852,"44":0.03721459043060642,"45":0.043863705876420786,"46":0.04709053983811917,"47":-0.08102127635261054,"48":0.026266148200528264,"49":0.06556103277784044,"50":-0.04249086723361693,"51":0.05641506896742712,"52":0.040371517605486934,"53":-0.13727734687282006,"54":-0.039541855646125244,"55":0.14237305611442502,"56":-0.23168687978779895,"57":-0.14268482807050664,"58":-0.03419508602849594,"59":0.0778773978574825,"60":0.19454934336775698,"61":0.1064103305245972,"62":0.041580542292600685,"63":-0.1419082785659645,"64":-0.0679248418302226,"65":0.23004561570554158,"66":-0.026146519872319394,"67":-0.11955198672803119,"68":-0.10679126082462834,"69":0.14716703436850861,"70":-0.07708007508475781,"71":0.012935115535546025,"72":0.11337536817864921,"73":-0.01721440156632832,"74":0.03541187287205932}},{"sx":5,"sy":5,"depth":3,"w":{"0":-0.036751248300915154,"1":-0.04336390081674686,"2":0.03696881479326811,"3":0.010761969563096552,"4":-0.08167203505614011,"5":0.08559971280350688,"6":-0.10107657033313225,"7":0.19034667819775347,"8":-0.07023545108028549,"9":-0.18939453099677037,"10":0.06346838374918813,"11":-0.21695738523656824,"12":0.05792028050287407,"13":-0.16282773296077177,"14":-0.05071339472298373,"15":-0.1270603424063796,"16":0.16016127663556604,"17":0.05979158122045664,"18":0.07528739220931555,"19":-0.14623029436447713,"20":0.0016515404231104026,"21":0.014966462937238094,"22":0.10497657485685634,"23":-0.10419301520607815,"24":0.008027971571882358,"25":-0.11090234478629742,"26":-0.028577206716929166,"27":0.13412309079410129,"28":-0.05006794115686036,"29":-0.007820829773904874,"30":-0.24299013141749198,"31":0.2517745631593178,"32":0.13520637155065338,"33":-0.14619805936300906,"34":0.11354658661740712,"35":-0.12767710764100776,"36":0.210849197509844,"37":0.1058853138738532,"38":-0.034694309691841625,"39":-0.4452730158958637,"40":0.10770005665478558,"41":0.00995001219955775,"42":-0.11800916555458729,"43":-0.03449899130432816,"44":-0.041172949232426176,"45":-0.10464227422966225,"46":0.03350585956276155,"47":-0.005929079961188277,"48":0.1345148350230865,"49":-0.20290517043547002,"50":0.09171010724463913,"51":-0.05364460656075511,"52":-0.07027535892750798,"53":0.05538173775474921,"54":-0.042489649689820046,"55":-0.14545234660106288,"56":0.31067263050740435,"57":0.054910430759159065,"58":0.09942498259359286,"59":-0.03474821073476725,"60":-0.10708243863922792,"61":0.023698378303290232,"62":-0.09717179218444856,"63":0.06396830143384123,"64":0.08683383801191634,"65":-0.05532519384715543,"66":-0.04753593551000183,"67":0.03693324296007596,"68":-0.06102105961763127,"69":-0.08545004070132774,"70":0.24636757707797563,"71":0.07131117617028702,"72":0.14829833095202893,"73":-0.19756128202522086,"74":-0.07951067690586264}}],"biases":{"sx":1,"sy":1,"depth":16,"w":{"0":0.03368452423998811,"1":0.07000224707066563,"2":0.027016956684848912,"3":-0.017604765580415443,"4":0.0634667903781338,"5":0.0579554783193837,"6":0.055135331055014336,"7":0.05990196333694128,"8":0.05938637787625238,"9":0.05690067612557089,"10":0.03728171300072596,"11":0.08695444999433663,"12":0.06284633545720034,"13":0.06174198016007904,"14":0.07411857348955353,"15":0.059027232831616455}}},{"out_depth":16,"out_sx":32,"out_sy":32,"layer_type":"relu"},{"sx":2,"sy":2,"stride":2,"in_depth":16,"out_depth":16,"out_sx":16,"out_sy":16,"layer_type":"pool","pad":0},{"sx":5,"sy":5,"stride":1,"in_depth":16,"out_depth":20,"out_sx":16,"out_sy":16,"layer_type":"conv","l1_decay_mul":0,"l2_decay_mul":1,"pad":2,"filters":[{"sx":5,"sy":5,"depth":16,"w":{"0":-0.017935861527727533,"1":-0.03149950586553821,"2":-0.01355034970028355,"3":0.09203975493540655,"4":0.0704721563811172,"5":-0.08714072356918164,"6":0.01556285468242525,"7":-0.023764616302379797,"8":0.08768461577581145,"9":-0.00008160138562234801,"10":-0.019074084216230372,"11":-0.037219172264309645,"12":0.0005103346482433857,"13":-0.04069402894761059,"14":0.07127465696531808,"15":-0.030512849634439593,"16":0.045286766672248006,"17":-0.04585899047834294,"18":-0.011237681943851975,"19":-0.10814272410587789,"20":-0.044257490745874074,"21":-0.012392054379553818,"22":-0.147714842683617,"23":-0.03134646955749726,"24":-0.02023041094831746,"25":0.07283916128707406,"26":0.035646035973684265,"27":0.011622033427861141,"28":-0.05158544499325219,"29":0.00410570698333188,"30":0.05259959866582895,"31":-0.003319053564354891,"32":-0.009742567020538839,"33":0.002466281382182184,"34":0.014098049751662128,"35":-0.04931150966291195,"36":-0.010167451549904873,"37":-0.05905932180681239,"38":-0.03137888507543321,"39":-0.08230627123832181,"40":0.037063759079733714,"41":0.007889283031646778,"42":0.05060863405033461,"43":0.009613631522711342,"44":0.02397379491384538,"45":0.05997481810546215,"46":0.0397757067203673,"47":-0.0015557694479251412,"48":-0.02761442259901529,"49":-0.029988022741055862,"50":0.0480365051780904,"51":-0.027813102362250562,"52":0.01666023654067277,"53":-0.038710131381246904,"54":-0.026383024843246138,"55":0.010961565539264891,"56":-0.1054452968874567,"57":0.0414628521326216,"58":0.0584989087862147,"59":-0.008098821937639849,"60":-0.053882358873762845,"61":0.061962029610214686,"62":0.0038037939088793223,"63":-0.025837321313149506,"64":-0.02782748344873253,"65":0.08573939321146082,"66":0.038936180311076866,"67":-0.047558285553966115,"68":-0.07720203114860465,"69":0.002579260277309012,"70":-0.031071832300811165,"71":0.03726033598796522,"72":-0.03981656092216254,"73":-0.0430762677987173,"74":0.008621456045850049,"75":-0.017915467669466327,"76":0.04004589944215799,"77":0.07734240159896663,"78":0.006787627291581871,"79":0.0991017102904862,"80":-0.07474689233193899,"81":-0.0226143426113624,"82":-0.07151462302486827,"83":0.08049607970527513,"84":-0.000037272713575392004,"85":-0.061332037436085965,"86":0.036766288884084314,"87":-0.020910313967364043,"88":-0.010241943876724368,"89":-0.1012262641989223,"90":-0.046447625426849014,"91":-0.08963931712230742,"92":-0.0007306920236627463,"93":-0.014341811629288232,"94":-0.029235823134940185,"95":0.010823875129656036,"96":-0.037335402968332425,"97":-0.012617123837073932,"98":-0.003375677698167136,"99":0.050734501473001826,"100":0.008791371028947826,"101":-0.036884971651380306,"102":-0.029347073623011553,"103":-0.04140083348173218,"104":-0.0711246340512541,"105":0.005251625237997035,"106":-0.03509597342182877,"107":0.0012722495154996495,"108":0.03807413012875896,"109":-0.08761524744000913,"110":-0.0464100509663719,"111":0.1418454686861355,"112":-0.037430129847314225,"113":-0.07831259444399934,"114":-0.07960234923012385,"115":-0.0740631556030748,"116":-0.04548697775094239,"117":-0.045686246001560314,"118":0.055873722934674935,"119":-0.05675030203247158,"120":-0.06491624247836796,"121":-0.04869207207628262,"122":-0.01582138149568009,"123":0.014562272533713727,"124":-0.04589721208959245,"125":-0.03734506221980689,"126":0.024101358998175337,"127":-0.0502160286595644,"128":-0.0432030306077192,"129":0.0251598564759458,"130":0.01577357356002664,"131":-0.06568173038637222,"132":0.06250417233527886,"133":0.02967539570590289,"134":-0.07960056127168712,"135":0.06870815675955029,"136":0.025356154673132455,"137":-0.03467024590350355,"138":0.0406597060952808,"139":-0.02882571819670213,"140":-0.05130716135294974,"141":-0.036663193995886204,"142":0.09893239448926812,"143":-0.08418354422974637,"144":0.08817090517725555,"145":-0.0025916408008461373,"146":0.02784173518556794,"147":0.02141954508998582,"148":-0.03373464872001752,"149":0.0026318255003784786,"150":-0.0010474920352973724,"151":-0.029060366178217577,"152":-0.02599063887859137,"153":-0.09588274071663808,"154":0.03547100470149043,"155":0.015948600984958965,"156":-0.0011940638789363492,"157":0.011088908741302734,"158":-0.11415482584721022,"159":-0.06789097655115214,"160":-0.009028965685750547,"161":-0.09069123843678824,"162":0.008115206164649013,"163":-0.12508083081319615,"164":-0.030257053404171255,"165":0.004883266187072203,"166":-0.07246808186987963,"167":0.00439893594941208,"168":-0.021409965892117255,"169":-0.036207526689242556,"170":-0.08871640640635302,"171":0.010451594355744945,"172":0.04534516819330057,"173":-0.028740249568884515,"174":-0.03608613197475572,"175":0.009680931112998042,"176":-0.05259763512737436,"177":0.035012819108592136,"178":0.16025954054269648,"179":-0.06317943157654722,"180":-0.010201264628345958,"181":-0.014433997574723061,"182":-0.0004085140393070602,"183":0.01160057061331496,"184":-0.0355020683955656,"185":0.011721546150487297,"186":-0.02173952181560336,"187":-0.001949187165062899,"188":0.015255783754357167,"189":0.03296535217742264,"190":-0.005468638434911563,"191":0.07921162292233311,"192":-0.027048468726084282,"193":0.037647826408164234,"194":-0.012906570080773517,"195":-0.11403036353508662,"196":-0.03746752693102248,"197":0.07684138549576902,"198":-0.02430871023877243,"199":0.040610607711819166,"200":-0.024487640217110123,"201":-0.07626825966333824,"202":-0.09810610309394645,"203":-0.09610722010880605,"204":-0.0024189635903890273,"205":-0.03440803753479325,"206":-0.07722981954023522,"207":-0.041041087907972805,"208":-0.0030927291146179868,"209":0.01123864789904397,"210":-0.0400490458586627,"211":0.019519492156321247,"212":-0.05036593647740204,"213":0.006556899909435377,"214":0.02139412513567472,"215":-0.005266650090034463,"216":-0.05265697110082406,"217":0.07660341872656976,"218":0.019733643306401986,"219":-0.0061696458326134275,"220":-0.03203357735753131,"221":0.061034648586004873,"222":0.03454295677578697,"223":0.015116984919239705,"224":-0.001961761783950173,"225":-0.06915847002522856,"226":0.06016551459598665,"227":0.06801406249084926,"228":0.0333406096441426,"229":-0.01904616511284038,"230":-0.04359329058626818,"231":0.026177079217936067,"232":-0.004924019768774086,"233":0.042036044745364744,"234":-0.0438058835551395,"235":0.06022618539998848,"236":0.06904745144844932,"237":-0.06665077776111797,"238":-0.10697377849217363,"239":0.006113126922281914,"240":-0.05913799358647574,"241":-0.05711975502301802,"242":0.05955666268450083,"243":-0.08940552785057762,"244":-0.05528557366331115,"245":-0.04936073360522257,"246":0.025729732098536195,"247":-0.0425147829011063,"248":0.0498376485593214,"249":-0.07716457135548574,"250":0.0028059417204447396,"251":0.0353103675133128,"252":-0.00690780551295401,"253":0.018137906090703492,"254":-0.004548661881500941,"255":0.04926406607907221,"256":-0.03736840130275468,"257":0.011953359998258504,"258":-0.05416803940313005,"259":-0.01782751812921003,"260":0.03629713419620091,"261":0.02854355430391801,"262":0.06551862166357736,"263":-0.014757095477963791,"264":0.035566032415054585,"265":-0.01847292530011505,"266":-0.07708600621382634,"267":-0.058853815717299134,"268":0.0640528587139312,"269":0.014680218757339335,"270":-0.008954991319521738,"271":-0.018943265564157173,"272":-0.07458251287860805,"273":0.04097301353704226,"274":0.059909694951445706,"275":0.008605190569452638,"276":0.030714078157496744,"277":0.003701914946466147,"278":-0.02693059898096703,"279":-0.10240436426249201,"280":-0.041244036945806015,"281":-0.03483455469618944,"282":-0.07890901906892817,"283":-0.018713454505457916,"284":0.08083721028353501,"285":-0.010540874131956968,"286":-0.02076253328396877,"287":0.011764105357752035,"288":0.0010343371368752906,"289":-0.04363543878565266,"290":0.004474325480407586,"291":0.030027834437425408,"292":-0.0529575346043147,"293":0.026060235532797484,"294":0.02637151014568013,"295":-0.020367773464630798,"296":-0.025939980230712117,"297":-0.11004344383193229,"298":0.08440914622910613,"299":-0.05915101450869592,"300":0.18820566358290716,"301":0.05870226945414861,"302":0.09681230761675902,"303":0.03232832764588056,"304":0.049958334714732634,"305":-0.0903965993282596,"306":-0.0389906437735699,"307":-0.04010065249950428,"308":-0.03974056545181562,"309":0.021945325956404305,"310":-0.03682840943285058,"311":-0.07853180572569851,"312":-0.020804104051999107,"313":-0.06906468360147279,"314":-0.046654532915302194,"315":-0.028595369279848657,"316":-0.023109760995176403,"317":-0.015858130640860283,"318":-0.019446789277837308,"319":0.030881997267724677,"320":0.03262658511160131,"321":0.005653462791822276,"322":0.13951729055579537,"323":-0.0356196301759589,"324":0.05010817624117183,"325":-0.10790322741193739,"326":0.08467869967959107,"327":0.07203993046794994,"328":-0.0733720695505401,"329":-0.01952952064798994,"330":-0.03203137084943805,"331":0.10945460134437875,"332":0.004846796520870736,"333":0.07764461373436375,"334":0.02534088360396686,"335":0.04979556338337919,"336":-0.057628030236676064,"337":0.0885718451067553,"338":-0.020792164250167822,"339":0.012082897022093449,"340":-0.0945672759972344,"341":-0.11553077419428034,"342":-0.05107503598752382,"343":-0.10056254337271031,"344":0.09267257652618435,"345":-0.01981585600037141,"346":-0.0011987443183696077,"347":0.017593224883084187,"348":0.027947031358472346,"349":-0.07053759155475137,"350":0.0879472532331737,"351":0.04599131065098704,"352":0.002565379848921256,"353":0.035351632364958835,"354":-0.0068753955910279795,"355":0.004308461967835427,"356":0.03062637224920831,"357":-0.007032909494655161,"358":-0.029546329915240938,"359":-0.05946059103077596,"360":-0.07360640356071033,"361":-0.09082124336006638,"362":-0.002717546417120885,"363":-0.0005456547565924324,"364":-0.001955129866407523,"365":-0.03725476504916957,"366":0.035820573685770976,"367":0.02103209588594769,"368":-0.027146448106850688,"369":0.01687961785382795,"370":0.01570239018670491,"371":-0.06303270454219849,"372":0.05250301785821966,"373":0.04703018926054939,"374":-0.025388464265717926,"375":0.03485985150146032,"376":-0.030161972478043555,"377":0.1003460570575503,"378":0.04179650307737665,"379":-0.028344689660780176,"380":-0.035454816855059176,"381":-0.041919653061287115,"382":0.0007310565039810306,"383":0.0182915435101953,"384":0.01976603898627538,"385":-0.002432444734600874,"386":0.03658488371185501,"387":-0.031006009071854412,"388":-0.04572294980650693,"389":-0.02963188794312654,"390":-0.0027506237575143032,"391":-0.07383430318108936,"392":0.029888070062400095,"393":-0.015479284151484824,"394":-0.05874517986913397,"395":-0.06823107312786035,"396":-0.030972050276227785,"397":-0.027071316993987057,"398":0.005147326526248148,"399":0.02907257464743902}},{"sx":5,"sy":5,"depth":16,"w":{"0":-0.04658169364729677,"1":-0.05751365330543479,"2":-0.014050581393428796,"3":-0.01669147190572141,"4":0.0010446481484684884,"5":0.006156777224047589,"6":-0.03501954901610932,"7":-0.00437052855127578,"8":-0.020703031552194426,"9":0.019766095055789783,"10":0.028075471163157315,"11":-0.08965520254131776,"12":-0.06037067409196305,"13":-0.01249301615137788,"14":-0.0033790739040731746,"15":0.014545435211626894,"16":-0.013279689227210094,"17":-0.05730197448839986,"18":0.04322745527183473,"19":0.03892754332535053,"20":-0.12034813422159489,"21":0.005303996577943088,"22":-0.01729168933100221,"23":0.0223773590863951,"24":-0.07411159782326034,"25":-0.04947058934516802,"26":0.013385207974483346,"27":-0.03670473195207,"28":-0.026357004351620153,"29":-0.010281693791383608,"30":-0.03188427747848115,"31":-0.019444044664118195,"32":-0.006820518457241792,"33":0.04522209547687777,"34":-0.04309647321143774,"35":-0.032910445823654724,"36":-0.011193854634775742,"37":0.017093584694555946,"38":0.004173278006320619,"39":0.001983462251004103,"40":-0.007743617309987228,"41":0.0210818454998088,"42":-0.13081577334204342,"43":0.053837928615353435,"44":0.010233728216076448,"45":0.09880342768971662,"46":-0.04475190617517652,"47":0.04394294334280135,"48":-0.06600699905850192,"49":-0.08904807302848959,"50":-0.04250075627880457,"51":0.027469548821043938,"52":-0.0051658264624145425,"53":-0.11234256217217008,"54":-0.041347380334666665,"55":-0.07424938566443448,"56":0.08893346872245887,"57":0.009926387440846039,"58":-0.0032347339786090888,"59":0.004138074638137648,"60":0.04277290619713385,"61":0.015900852635325705,"62":0.037534800358329484,"63":0.06918707755969065,"64":-0.028418473232430626,"65":-0.07915746744757819,"66":-0.09873179029031204,"67":-0.022140769079754225,"68":-0.0951322851237772,"69":-0.07252993534833276,"70":-0.10809674386567072,"71":0.05033878406168305,"72":0.046632636620410166,"73":0.07689580760158334,"74":0.004395202263262597,"75":-0.0043695762718382915,"76":0.05756365169761854,"77":-0.013552972982358446,"78":0.06063574133859052,"79":-0.08275588881254313,"80":-0.013366135832684055,"81":0.021041576631604726,"82":-0.07468488151112326,"83":0.011509240763039583,"84":-0.032827698609501535,"85":0.010847584936378026,"86":0.020109562332596285,"87":-0.05890370283789224,"88":-0.028598234142911582,"89":-0.06724796966241836,"90":0.020588388181199502,"91":-0.03871866330105305,"92":0.12291538312365913,"93":0.10086971630625917,"94":-0.003720950525331071,"95":-0.04590308341665364,"96":-0.08743594864095387,"97":0.05986086893963842,"98":0.016583860546261688,"99":-0.05307306672092526,"100":0.005592576017838202,"101":-0.002661641797475722,"102":0.023067941422593878,"103":-0.02256007469441384,"104":-0.007101755368357958,"105":-0.003721970032202797,"106":-0.06422235853223644,"107":0.06104534370917452,"108":-0.046357283028819675,"109":-0.004208618215495158,"110":-0.06340166319188495,"111":0.03853448569454539,"112":0.030701469112284486,"113":-0.0009201598008625928,"114":-0.009681559372262647,"115":-0.07948207028405145,"116":-0.04297984650245501,"117":-0.03482019315947776,"118":-0.06242844934821444,"119":-0.019109140012201105,"120":0.024428738787347328,"121":-0.003853661895176749,"122":-0.012665583402140693,"123":0.005083428405025055,"124":-0.03386399017630753,"125":-0.0371354203699669,"126":-0.06849990207707335,"127":-0.0003954338426259124,"128":-0.04657236317734774,"129":0.01690601670292282,"130":-0.06743632805418473,"131":-0.03869776688616684,"132":-0.10171041978321826,"133":0.005233203835246279,"134":0.0043775176171095085,"135":-0.04417793604499188,"136":-0.01249323081218182,"137":-0.023119264085256774,"138":-0.005280934610845158,"139":-0.11377498023620686,"140":-0.05921175798979038,"141":0.018755693374943785,"142":-0.020398041896342617,"143":0.03665351168935531,"144":0.004748424200712205,"145":0.06393193640141583,"146":-0.06947684165500295,"147":-0.05009260386639374,"148":-0.02445718199490794,"149":-0.03313897955136851,"150":-0.006326967478358586,"151":0.022363049937645825,"152":-0.031109664445160345,"153":-0.04348641046795996,"154":-0.031224207598309604,"155":-0.033094145648901126,"156":-0.005594855721098602,"157":0.04329553309145892,"158":-0.03317858135476718,"159":0.0452875359097918,"160":-0.04666456469063433,"161":0.03770238823807506,"162":-0.11568231475762202,"163":0.09357826294371367,"164":-0.0031984701099742343,"165":-0.005075759240458551,"166":0.011597272299892568,"167":0.003125802150191404,"168":-0.024893982555403427,"169":-0.05309097250082207,"170":-0.05248124073313881,"171":0.11226170805432446,"172":-0.13593492032939106,"173":0.06363431458737301,"174":0.06851725735892214,"175":0.0041326111169607,"176":-0.01893998277190601,"177":-0.09281370105917575,"178":0.0668607095801077,"179":0.03476248731870282,"180":0.053525159749024366,"181":-0.004340183798005899,"182":0.05723605434903611,"183":0.04188115009340033,"184":-0.11475912120588513,"185":0.08063924666670154,"186":-0.019856491550082376,"187":0.027141279707129057,"188":-0.03399031526258306,"189":-0.058388390522469594,"190":-0.010679449326424555,"191":-0.053475544176260215,"192":0.01497543462500843,"193":-0.005997715726731319,"194":0.0008039393601313135,"195":0.034355191631622,"196":-0.04923672736731693,"197":-0.10355230087496015,"198":0.08098810288467555,"199":-0.004053583067059719,"200":0.005321618425659252,"201":-0.01456278988881707,"202":0.030183816348534384,"203":-0.016013037151541756,"204":0.095891114439413,"205":0.017247424753831696,"206":0.036915886922083155,"207":-0.0761638260363107,"208":-0.006432802767577771,"209":-0.01285995133868589,"210":-0.019897627508486348,"211":-0.07231822125032819,"212":0.09107957022491206,"213":-0.00014714514634879653,"214":-0.054179198826058345,"215":-0.050817513601253084,"216":0.06039268003709105,"217":-0.002741723236744659,"218":0.02719824728494081,"219":0.08175681729677284,"220":-0.006312930541870574,"221":-0.009474671128808594,"222":-0.050722515016959464,"223":-0.04595496816076269,"224":-0.06486280068741748,"225":-0.07853702491044161,"226":-0.002945798111278233,"227":-0.09557541056081609,"228":-0.049144069830775614,"229":-0.06629740596221989,"230":-0.0039258065146369646,"231":0.04798260275551532,"232":0.07462105706981913,"233":-0.039097116567302095,"234":0.004021033912016293,"235":-0.026506513386027417,"236":0.0004663974564642032,"237":-0.021007975897270225,"238":-0.032478401688991305,"239":0.0011357794677451442,"240":0.03137590867051485,"241":-0.003051309649562284,"242":-0.05764257292197071,"243":-0.04453531136157012,"244":-0.01267416197662033,"245":-0.03675139375581027,"246":0.03212390862136098,"247":-0.07285886140324455,"248":0.015243710782057754,"249":-0.05865553127281768,"250":-0.0725394239102035,"251":0.033276255877318923,"252":-0.026396571655432986,"253":-0.04531680521916099,"254":0.09699627863064345,"255":0.028597698382546177,"256":0.059254295823445116,"257":0.019726940555450767,"258":0.018244805848160815,"259":-0.0061061393379549436,"260":0.0720643351980827,"261":0.0006414086777863433,"262":0.009989919821430434,"263":0.052961497778350373,"264":-0.002857198041415655,"265":0.09699066183353437,"266":-0.025160078521180764,"267":0.028157615317105048,"268":-0.005363266153495138,"269":-0.031165235230908007,"270":0.035136545942132585,"271":0.010527991167140463,"272":0.028861952678339,"273":-0.11161336992959077,"274":-0.03489174240644395,"275":-0.10253690129068717,"276":0.06630044932074801,"277":-0.06503185165955805,"278":-0.06252126282872433,"279":0.03635817852713678,"280":-0.017212280549524304,"281":0.05741342507227785,"282":0.11968946291542476,"283":-0.04375700059172066,"284":-0.009823737830985835,"285":0.06624854968302363,"286":-0.10346726131590528,"287":-0.024690060914878628,"288":0.018677893829969563,"289":-0.08441651825604579,"290":-0.03919170883038643,"291":-0.11173488838894735,"292":-0.02515689090099574,"293":-0.02198872645951792,"294":0.04366250516575999,"295":-0.04450585283293444,"296":0.01143258613698514,"297":0.03707797362557134,"298":0.016336095339166745,"299":0.05487688084088209,"300":-0.05977090709299737,"301":-0.008179795917342695,"302":0.05081173310687474,"303":0.07270338658355553,"304":-0.07718903042831368,"305":-0.01855338037887154,"306":-0.005638926027648882,"307":-0.05223853316656835,"308":0.0008481555683639056,"309":0.015383627966669276,"310":0.0391338909483452,"311":-0.0472831073062241,"312":0.09545192572917019,"313":0.03067249033436172,"314":-0.010080108570017687,"315":0.01595376143667208,"316":-0.01739368285882864,"317":0.06959180019846951,"318":-0.026366300844410336,"319":-0.06524980194058617,"320":-0.08245758820341934,"321":0.004132687095219659,"322":0.01219519972914473,"323":-0.09907409689976922,"324":0.1084419300169147,"325":-0.023972630311675534,"326":0.03514386125445269,"327":0.07356274609040035,"328":-0.04561175076685149,"329":0.03906649309257173,"330":0.04825958415099245,"331":0.06042542868312159,"332":0.009103284680395259,"333":0.06150243423919795,"334":0.05388841214708656,"335":0.0317453156558722,"336":0.05626041518752596,"337":-0.026789066145896438,"338":-0.03048287993846906,"339":-0.03148987064756547,"340":0.023668511002557374,"341":-0.027569195011407456,"342":-0.032278669384714416,"343":0.036551945878068516,"344":0.010304293558133911,"345":0.03127247072152883,"346":0.05966230014495371,"347":0.11597892318255451,"348":0.060210702344084016,"349":0.019157743493691568,"350":-0.0397761190538736,"351":-0.041181418572322895,"352":-0.04636854240914693,"353":-0.003549218460610897,"354":0.021717435008835297,"355":0.08809600797278509,"356":-0.023553423632705964,"357":0.0038877990115143563,"358":0.0059488092253090225,"359":0.08534037635625583,"360":-0.09209353448414517,"361":0.009383233116742423,"362":0.02456127356847511,"363":0.0022588510585545697,"364":0.025030905287979268,"365":0.004054195253054404,"366":-0.08592498820174542,"367":-0.00927440853081274,"368":0.09478805453841148,"369":-0.0005996814169741483,"370":-0.0035354330965355622,"371":0.016496455272073527,"372":0.06807343573328498,"373":0.06251702701021944,"374":0.009449919164397292,"375":-0.04032755999012411,"376":-0.05024830609016828,"377":0.013439933990499366,"378":0.03644456092319048,"379":0.03380513840973455,"380":0.06952319283564638,"381":-0.048490037188686906,"382":0.06450477108559605,"383":-0.03261180012112131,"384":-0.010201241092104496,"385":-0.013746576007375336,"386":-0.011912104787761488,"387":-0.02729099379211119,"388":0.00750347271005621,"389":-0.03840209754263643,"390":-0.00897962734647842,"391":-0.06624639569267361,"392":0.006440969650085997,"393":0.005411821854523336,"394":0.0007018440167604841,"395":0.08248852809564632,"396":-0.013633960569411666,"397":-0.0036750476593380454,"398":-0.026758824034412376,"399":0.039896149736180525}},{"sx":5,"sy":5,"depth":16,"w":{"0":-0.12169061967487926,"1":-0.09126397812173156,"2":-0.09677096683530031,"3":-0.008433629766931131,"4":-0.1369000828483937,"5":0.06117080597728491,"6":-0.04948965925746205,"7":0.008283337628880779,"8":0.06324859805181507,"9":0.03366440584205783,"10":0.00940294360850954,"11":-0.002386623577336705,"12":-0.11041279673828013,"13":-0.1066898061893064,"14":-0.008809259919052709,"15":-0.01350467909457067,"16":0.06611245025036455,"17":-0.07856942495465775,"18":-0.01742957775337352,"19":-0.012701450834091115,"20":0.0567618602857737,"21":0.004493015719936074,"22":0.05215601144712987,"23":0.052748769967271354,"24":0.051602279090038804,"25":0.023455760501013175,"26":0.07170389051908967,"27":-0.10952246666597523,"28":0.03335374940219316,"29":-0.12857708730287853,"30":0.01524867875328029,"31":-0.03284685483341685,"32":-0.03491451558188882,"33":0.00877323966490407,"34":-0.02752176507719438,"35":-0.10159726945201315,"36":-0.03564379038215045,"37":0.02630403037681452,"38":0.023767049052661963,"39":0.01436391863230234,"40":0.03392303417740295,"41":-0.027504069957054653,"42":0.006281481598531196,"43":0.001443574223059737,"44":-0.058015772818900156,"45":0.007234035639226947,"46":-0.018838778684880497,"47":-0.10569958980640178,"48":-0.012265938739411335,"49":-0.00038211447319736695,"50":0.023101781613580424,"51":0.014503904004530962,"52":-0.038190002885546775,"53":-0.004678811593531159,"54":-0.08936644746573798,"55":0.09611031922299693,"56":0.03761736455316564,"57":0.021351391508950348,"58":-0.05501307310747322,"59":-0.02361713702504021,"60":0.03572136802217888,"61":-0.020141506154326173,"62":0.012565983097392782,"63":0.025055599466544967,"64":0.039669794941414836,"65":-0.08386359099633807,"66":0.048320324328116976,"67":0.055696378928228645,"68":-0.026089179585434105,"69":-0.012101331194244806,"70":-0.1116492705509009,"71":0.009307997126489201,"72":-0.0038756358255607145,"73":0.04057696947474679,"74":-0.015152444939342329,"75":0.09939115158975301,"76":-0.00962443642014911,"77":-0.03995028216240522,"78":0.029208742596395155,"79":0.08757571592144431,"80":0.032584321485744874,"81":-0.049107864093339344,"82":-0.018270176529239547,"83":0.05138014321577152,"84":-0.0013180858910718399,"85":-0.06900872877568573,"86":0.05481856442511806,"87":-0.0678409846133475,"88":0.006421306078450987,"89":-0.02344373911228639,"90":-0.10679824072469797,"91":0.030525227368778506,"92":0.07454913000618729,"93":-0.02952434212595872,"94":-0.03283483043223716,"95":-0.12791510407792098,"96":-0.04846044662694845,"97":-0.03865306629968668,"98":-0.00955595139817124,"99":0.07889222607823172,"100":-0.06287550187665089,"101":-0.0029312485349470207,"102":0.02111813101653336,"103":-0.06294356665660013,"104":-0.010393703557515642,"105":0.06431467295548411,"106":0.019921262594198217,"107":-0.030594288748383554,"108":-0.06805589228475986,"109":-0.1138434294396181,"110":0.010324762486276461,"111":-0.09347080275930023,"112":0.021472622474722078,"113":-0.08871827169247923,"114":-0.08791138489414302,"115":-0.06127568414889342,"116":-0.058660372621355567,"117":-0.11588360724137585,"118":0.04137200798037227,"119":-0.03855777148337773,"120":0.02332319254785777,"121":0.005849885258306931,"122":-0.05310447635461926,"123":0.018343752075825063,"124":-0.07982288642435177,"125":-0.11491115444772344,"126":-0.06672040935368721,"127":0.00463668010490696,"128":0.005216060303244747,"129":-0.0007096746337174255,"130":0.013997966883427524,"131":0.014723589052777463,"132":0.055996250760247786,"133":-0.047324371608443064,"134":-0.005351091739745618,"135":0.02511646852684831,"136":-0.1369828616150725,"137":0.02978081848468982,"138":0.017629528455218233,"139":-0.056687818549870136,"140":0.010316377355074296,"141":-0.008223227383195702,"142":-0.003347176203552624,"143":-0.009897376857420925,"144":0.034552910523262856,"145":-0.10416518694373768,"146":-0.08744581810855973,"147":0.05979143519436658,"148":0.09755498517067189,"149":0.016382983613738238,"150":-0.103265160455322,"151":-0.050575271579254746,"152":0.0699793990433344,"153":0.05071008961337672,"154":0.031045003256757693,"155":-0.0026187404852940515,"156":-0.10070119925140224,"157":-0.10527643838188737,"158":0.025473932186490116,"159":0.005517809642702271,"160":-0.04310609443998457,"161":-0.06589278817900643,"162":-0.03451254299943083,"163":-0.03916856373253771,"164":0.033156793014422044,"165":-0.027823159287437366,"166":0.02456249039334884,"167":-0.009778596806394625,"168":-0.03281828703468803,"169":0.11575949877930315,"170":-0.07461621418991683,"171":-0.03237213418487015,"172":-0.06380880838241149,"173":0.011944635241526367,"174":0.030123184604721825,"175":-0.02299965935588521,"176":0.05276456722209194,"177":-0.027392877638650545,"178":-0.0015844491633433449,"179":-0.05386002668844308,"180":-0.03081849045800244,"181":-0.04170054308001141,"182":-0.0809907820253516,"183":0.05503947355876447,"184":-0.01161508555903008,"185":-0.02318528031092077,"186":-0.052630557169662126,"187":-0.02618658317070855,"188":-0.021495618184205145,"189":0.0028637897273415514,"190":0.04945069113541531,"191":0.05788838746246103,"192":-0.03836911549793,"193":0.05595468765549453,"194":0.011596194442345583,"195":0.023286335269310173,"196":-0.03409266024482833,"197":0.04348459696955554,"198":-0.07195779427783841,"199":-0.025455650025134027,"200":-0.018317521281693415,"201":-0.02264056399687719,"202":-0.031274691594899866,"203":0.03929440300070424,"204":0.0927101746504858,"205":-0.04487915648035415,"206":0.0726673537178,"207":0.037222063240035345,"208":-0.09090973145635932,"209":-0.05309130546442778,"210":-0.06632918041347964,"211":0.016167342547379837,"212":-0.03519489766435646,"213":-0.1124789019298404,"214":0.07856973638529813,"215":0.05351398817031638,"216":-0.05707978833804987,"217":-0.053850962218924645,"218":-0.020817321630453408,"219":-0.028020209647248776,"220":-0.012647058933129134,"221":-0.029691606422732615,"222":0.023704592192315452,"223":-0.06815702608356188,"224":-0.06985922086179991,"225":-0.08744646826400708,"226":0.02974140302872862,"227":0.05057855984197799,"228":0.05151468230317655,"229":-0.0023064307078171403,"230":-0.08520695719769812,"231":-0.00543908546107539,"232":0.037742787025411985,"233":0.040747441336678555,"234":-0.003053843550941788,"235":-0.056688423431625994,"236":-0.037031468548861746,"237":-0.05605468529102838,"238":0.015285867114219405,"239":-0.06589331344443958,"240":-0.08832521531836637,"241":-0.06670872237478707,"242":-0.06138822348362249,"243":-0.04596545079825116,"244":0.029780434339359074,"245":-0.06811429610737976,"246":-0.021826292667891024,"247":0.007014818578100908,"248":0.08970838936103366,"249":0.14514633044791414,"250":0.05909210764082584,"251":-0.05099193198199443,"252":0.07230388265496532,"253":-0.01700723872692531,"254":0.00558896495164481,"255":-0.018049029419816315,"256":-0.10637091703398457,"257":-0.0037690637292471757,"258":0.032717214659447484,"259":-0.10978333900146706,"260":-0.013465050591085648,"261":-0.0187389003771576,"262":-0.018641725924457557,"263":0.020354904352784232,"264":-0.031535596920214855,"265":-0.049558933101933635,"266":0.022816187947749606,"267":-0.05073040573496739,"268":0.016021498761686896,"269":0.03616502792462482,"270":-0.08309593623607396,"271":-0.012355644297002831,"272":0.041769201110727294,"273":-0.09515827578368827,"274":-0.03247773816829561,"275":-0.0853733868533976,"276":-0.03558189280181111,"277":-0.02742993060752096,"278":-0.09754646119750883,"279":0.04875605328749203,"280":0.021862362361151213,"281":0.03097545041967703,"282":0.01682490358981791,"283":0.016216256446676732,"284":-0.0906365315131773,"285":0.015495096630959257,"286":-0.06875560123100077,"287":-0.05966817084999811,"288":-0.08207226265587432,"289":0.0926229002235566,"290":-0.043676637350113755,"291":0.07647243084209421,"292":-0.051573643283572786,"293":0.04345758573004879,"294":0.05177279461533157,"295":0.05930590048152769,"296":-0.060668773809281075,"297":-0.033790260162354355,"298":-0.032047313300911734,"299":-0.018930880941494158,"300":-0.08427581510413866,"301":-0.0013861574204041295,"302":-0.03130601238478137,"303":0.0027453112013225097,"304":0.11342451928403935,"305":-0.04376226401976412,"306":-0.005606022958262399,"307":0.052180178744424696,"308":0.010933269731114087,"309":0.018824786295298348,"310":-0.06854492790296626,"311":0.04795855652756717,"312":-0.012864456506548442,"313":-0.03391099624892716,"314":0.07933376843080928,"315":-0.06335227921259623,"316":-0.0021185408978399906,"317":-0.010111233691058064,"318":0.06171075161815962,"319":-0.0180252688290662,"320":-0.15130119615359408,"321":-0.021357957064681035,"322":0.05225701144328577,"323":-0.007593559499619526,"324":-0.011968830351019996,"325":-0.00519981920980711,"326":-0.06671909163953546,"327":-0.02319986609790514,"328":-0.05485345699229704,"329":0.04566128522370837,"330":0.00531617262669194,"331":0.07020046136792343,"332":-0.09556293158580031,"333":0.029463700406964135,"334":0.011268617661591065,"335":-0.01232053479842368,"336":-0.052011118007090004,"337":-0.10285334208344675,"338":0.002805857671668072,"339":-0.04287996196952517,"340":-0.05369147336790661,"341":-0.05867311238285327,"342":0.01990486628846369,"343":-0.07500468392877603,"344":-0.038497559642465554,"345":0.018608580307247182,"346":0.06540381736758692,"347":-0.05251608422857565,"348":-0.03043591155000539,"349":-0.011819584774331695,"350":0.09318356195244527,"351":0.05859452641940054,"352":0.050530168423478634,"353":-0.06251860718109613,"354":0.05384408868427797,"355":-0.10420131745099911,"356":-0.02969365910601681,"357":-0.038338534521921624,"358":-0.0016296944008335427,"359":-0.007462268758738225,"360":0.06945777439127603,"361":-0.023712666368306077,"362":-0.019542648176332535,"363":-0.07022274508580845,"364":0.01009428394186259,"365":-0.01433298011139205,"366":-0.01743640332498578,"367":0.03221272071192826,"368":0.017785675731117667,"369":-0.16134684659437132,"370":0.02322662872101181,"371":0.03869866452704215,"372":-0.04319747716778325,"373":-0.10096459991771037,"374":0.04172803332150532,"375":0.024688458156135004,"376":0.09193632262932425,"377":-0.04315189656364439,"378":0.021059481950509683,"379":-0.09572089976040556,"380":-0.11026342340664749,"381":-0.007017801933421254,"382":0.1003617985112689,"383":-0.07679369104605344,"384":0.061320181788925496,"385":-0.017824388732658288,"386":0.03811804667927054,"387":-0.03334944340163311,"388":-0.0170533600855947,"389":0.007582592217260003,"390":-0.053073806629962736,"391":-0.07874687244511495,"392":0.020442149827318172,"393":0.06857921261049893,"394":0.04763009045725676,"395":-0.03273122925226929,"396":-0.0401983296028323,"397":-0.03630749692487727,"398":0.07249085348858482,"399":-0.016263674026818}},{"sx":5,"sy":5,"depth":16,"w":{"0":-0.06349335023550887,"1":-0.019636652276837294,"2":-0.11246723421863988,"3":-0.03750567045234191,"4":0.020964460453458938,"5":-0.02303048821100484,"6":-0.10139660186781389,"7":-0.025717439068131998,"8":-0.08478294572603978,"9":0.05198842237169431,"10":0.041743022006169785,"11":0.02431411864996887,"12":-0.08147091476035286,"13":0.03464640429817558,"14":-0.08761382614708457,"15":-0.08287416293298222,"16":-0.03696075991413346,"17":-0.04919725513932779,"18":0.0861576446020397,"19":-0.08244266938639011,"20":-0.07764146379749162,"21":-0.06109266692633544,"22":-0.13548248556559686,"23":0.002576889731496403,"24":-0.09804394036083423,"25":0.057234306010557914,"26":-0.01724737250243435,"27":-0.03890755897460428,"28":0.02003108237178255,"29":0.016620526012458368,"30":0.030100741499867092,"31":0.002263327827299305,"32":-0.007182178630581049,"33":-0.11541706710358908,"34":-0.029845816499041434,"35":0.0792058770786106,"36":-0.04518552466067702,"37":-0.0003215045991533455,"38":0.013674186597711191,"39":-0.09493912499550544,"40":-0.054715661702819995,"41":-0.08943573414678287,"42":-0.03811914856451645,"43":0.05463254922626055,"44":0.002624110341594189,"45":0.03314371628687099,"46":-0.06917983933616018,"47":-0.007477913687167479,"48":0.012679743779840318,"49":-0.04528530714362784,"50":-0.05877898287866449,"51":-0.04407020155063401,"52":-0.10227275139552885,"53":0.050146839671144534,"54":0.021734551036226086,"55":0.026919208057481533,"56":-0.019928470880145644,"57":-0.06752037798693278,"58":-0.03664648864976092,"59":0.018659988418875985,"60":-0.0029415998428971497,"61":-0.03708704639339715,"62":-0.05595144956988144,"63":0.006226903544352148,"64":-0.03638213854385175,"65":-0.0907026317592524,"66":-0.06413595171198547,"67":-0.01683733888972056,"68":-0.11107127110769661,"69":-0.04743225640609575,"70":0.03134423117066882,"71":-0.026437906310870493,"72":0.09875392918372936,"73":0.05127299916306687,"74":0.009163292478657653,"75":-0.07073160150995027,"76":-0.057140463727056306,"77":0.032789197589384374,"78":0.04745991912534152,"79":-0.1348188981739266,"80":-0.007312898088648091,"81":-0.0737899471730896,"82":-0.02648764481983252,"83":-0.03983951570384813,"84":-0.03571720260917514,"85":0.025836973411609163,"86":-0.051798474794796455,"87":-0.07754742015437212,"88":0.012781767059586037,"89":0.00796818010799896,"90":-0.11804179441410219,"91":-0.007525358818398828,"92":-0.04937219815173318,"93":-0.07895484752306188,"94":-0.0020575159279963445,"95":-0.016634481872554424,"96":-0.046624340599076886,"97":-0.000875492630071197,"98":-0.012372557441710962,"99":0.00794712898876304,"100":-0.08264326927043539,"101":-0.012475101198551584,"102":-0.09734180291840286,"103":0.05700473947341543,"104":-0.014010455860970385,"105":-0.01788895816969208,"106":-0.034325464056981364,"107":-0.027972893163114094,"108":-0.003955214898520506,"109":-0.00733669209158022,"110":0.12821137913787217,"111":-0.11237310116268524,"112":-0.00188339074986874,"113":0.09475411001984277,"114":-0.07022665945424489,"115":-0.13565042556520712,"116":0.01536663773656114,"117":0.06869726370007455,"118":0.05028529767174134,"119":-0.009189617924980738,"120":0.005211568571073858,"121":0.0741218454198588,"122":-0.029201202298766153,"123":-0.00003438992887758536,"124":0.017669823490609204,"125":-0.009423831006664786,"126":-0.05443555557593037,"127":-0.07075560274820111,"128":0.03918115708393169,"129":-0.0329149122150147,"130":0.025229711284551298,"131":-0.036945392231099335,"132":-0.003973788620893358,"133":-0.015821693966836376,"134":0.015239273235186373,"135":0.09476975978730973,"136":-0.054385054829707825,"137":-0.04809405458683755,"138":0.11522444142648179,"139":0.06276939572937713,"140":-0.0843969225854097,"141":-0.03138624113566011,"142":0.026702333151257293,"143":-0.09225936542179239,"144":-0.008275938679779047,"145":0.015622523916453577,"146":-0.00466849514631257,"147":-0.05181079877846348,"148":-0.015832813186040358,"149":0.00028407236102869724,"150":-0.0042742800159513775,"151":-0.05929359050030206,"152":0.010646562316140636,"153":-0.04448584960276038,"154":-0.006219962969694634,"155":-0.04825843702540236,"156":0.0249567884376129,"157":-0.07145553617320209,"158":-0.012971900949139881,"159":-0.06482144196784179,"160":-0.020575456891452563,"161":-0.06523819504122978,"162":-0.07200472313709705,"163":-0.024515020971618905,"164":0.00581962250161426,"165":-0.031601801634378535,"166":-0.036884615969415085,"167":0.06396299362266986,"168":-0.023513607825853745,"169":-0.02055216844133863,"170":-0.027524840972154352,"171":0.06356542471844571,"172":0.024399668128828652,"173":-0.03742548901244017,"174":0.04851149272163572,"175":0.0340954412653736,"176":0.004574737951074228,"177":-0.05365736024101861,"178":0.0574177954400573,"179":0.002247430072957605,"180":-0.0038660130326160906,"181":-0.059233214563344454,"182":-0.048062945006601375,"183":-0.04969844111035428,"184":0.0890532062316205,"185":-0.03782221453688125,"186":-0.00624737796184996,"187":0.007770606383950195,"188":0.026250044036952337,"189":0.010240922817651802,"190":0.008116303110068402,"191":-0.018247906470120038,"192":-0.08772997396098409,"193":-0.0295661056369095,"194":-0.087059218025872,"195":-0.006868845142325432,"196":-0.11079825876878296,"197":-0.04032721672898896,"198":0.047130863955622,"199":0.024082991820898635,"200":-0.04163188826436602,"201":-0.07233944689398619,"202":-0.007169219649342589,"203":0.06699995962217808,"204":-0.03045941335093811,"205":0.0564733869464252,"206":0.019951775910134396,"207":-0.07628528643217578,"208":-0.010188999142489417,"209":0.009837153214666744,"210":-0.05936963066617079,"211":0.004956348731203996,"212":-0.027803109684628482,"213":0.007564795912365079,"214":-0.004363824391622426,"215":-0.07158125994992648,"216":-0.010997529988675637,"217":-0.08061791017756786,"218":-0.11579456750279131,"219":0.13898076608502657,"220":0.06393027391017742,"221":-0.06129125382456317,"222":-0.06340721765005525,"223":0.0699032231121219,"224":-0.00409735561849546,"225":0.05380943941072567,"226":0.01786823397952964,"227":0.038444017989859434,"228":0.0045550580283274505,"229":0.00038409755044891585,"230":-0.06216627922407393,"231":0.09280391098650113,"232":0.015133179177539749,"233":-0.09197943817788845,"234":-0.004747450262428004,"235":0.04952227312508508,"236":0.009385017173381895,"237":-0.08822053737668002,"238":-0.0166225242806377,"239":-0.06875048361412595,"240":-0.07378392369103483,"241":0.017365771748975873,"242":-0.017461395696951102,"243":-0.053482693768867,"244":0.11221600818884554,"245":0.028461089147330764,"246":-0.04869964600933962,"247":0.06302554667525892,"248":-0.06210825965871982,"249":0.04378805675746879,"250":-0.07592169049154603,"251":-0.0434617086263375,"252":-0.06659474815179384,"253":-0.016484316214403043,"254":-0.022483823174496327,"255":-0.03406897763148332,"256":-0.019984828643809488,"257":-0.006678652305951568,"258":-0.06082823423144905,"259":-0.031647172666788716,"260":0.06773184777204518,"261":-0.049783048954217216,"262":0.06356214357566992,"263":0.06425877010491587,"264":0.039962713726822474,"265":0.09624782805266421,"266":-0.07285104125801628,"267":-0.02839950463348424,"268":-0.12386044784163622,"269":-0.06120587502368842,"270":-0.017913786770272985,"271":-0.024116934110106302,"272":-0.0391735830926961,"273":-0.008009823601122968,"274":-0.06111335511785788,"275":-0.011839598802753974,"276":0.09934572089562678,"277":0.004367886373902346,"278":0.006970181290933766,"279":-0.09886139627822868,"280":-0.031835395122588594,"281":-0.027818447332949622,"282":-0.0948952401575817,"283":-0.015625749927102202,"284":-0.0015178244554111737,"285":-0.0022109231898373763,"286":0.002687133216009182,"287":0.041140051594609366,"288":0.010146679961933075,"289":0.015957962658655612,"290":0.0019036028435618253,"291":0.0227474421353067,"292":0.03612305578715868,"293":-0.0006182424199187938,"294":0.07388653526617499,"295":-0.016386817913227637,"296":-0.0033677596389307092,"297":-0.07348968857875196,"298":0.026262680423124525,"299":-0.03761728766449448,"300":0.04132445460304891,"301":0.019940056554610737,"302":0.09354597665281922,"303":-0.034579936289458546,"304":-0.12499774791519397,"305":-0.0829309779503188,"306":-0.06927753092662636,"307":-0.05291725789401211,"308":0.03570553728618217,"309":-0.02675622017555419,"310":-0.06219690648354872,"311":0.06958075087233781,"312":-0.07204377545202359,"313":-0.036829210400683675,"314":0.0013366123501086923,"315":-0.10023196510037762,"316":0.012289395516548776,"317":0.022233257197388064,"318":-0.047604902004789354,"319":0.01950243291629482,"320":-0.0813996328129947,"321":-0.012327408874383937,"322":-0.010576237312976204,"323":0.045835518440504916,"324":-0.011874604778723324,"325":-0.0372562479535245,"326":0.008786113037914099,"327":-0.06974995032276955,"328":-0.029487662485556947,"329":0.04096624156939005,"330":-0.006458451449814522,"331":0.01930906300624273,"332":-0.01346922475754021,"333":-0.03366954525625745,"334":0.031400342399600115,"335":-0.03434913079050972,"336":-0.1051486453595738,"337":-0.066188806283466,"338":-0.06052409555663655,"339":-0.06135909306967916,"340":-0.1442889631064302,"341":0.008336376331639408,"342":0.08689182716207162,"343":0.082639963403779,"344":-0.025613410557693846,"345":0.006417379660956596,"346":-0.01430079063909461,"347":-0.02715406934562483,"348":0.03731418839363936,"349":0.05209759378146951,"350":0.029669013226705187,"351":-0.0186980185793672,"352":0.03324005942606443,"353":0.006260999038972641,"354":-0.0465591302964886,"355":0.057322080171526305,"356":-0.03377818327108172,"357":0.003992880606556231,"358":0.04757442460366122,"359":0.06362877468938835,"360":-0.04014659909771329,"361":0.04012485069652471,"362":-0.0006232630505572044,"363":0.11091247696000889,"364":0.07305088271836015,"365":0.02286588435367383,"366":-0.008811910219104789,"367":0.008300914327700554,"368":0.0010894966471757938,"369":-0.07072981241959697,"370":-0.06327111086598765,"371":-0.015729947848676158,"372":0.03157992749838491,"373":-0.0038304560303142198,"374":-0.11349179909125458,"375":0.01143880594794043,"376":-0.06244393522350818,"377":0.0065503068738798275,"378":-0.0762186452107392,"379":0.014995780019698642,"380":-0.036508921084477314,"381":-0.020822018345015514,"382":0.04093923357349206,"383":-0.021033454770849124,"384":0.06138943495918994,"385":0.037195145646864554,"386":-0.042865025417383296,"387":-0.12056047983544405,"388":-0.041681678388277466,"389":0.012827582933242267,"390":-0.016249713086119857,"391":-0.04246973662925007,"392":-0.033441078992372676,"393":-0.0300831181889577,"394":0.0452511457702247,"395":-0.003946177708646676,"396":-0.02357649738076727,"397":0.052272313824005184,"398":-0.05439658183757424,"399":-0.05600633619635726}},{"sx":5,"sy":5,"depth":16,"w":{"0":-0.07328141552807632,"1":-0.06845693077950253,"2":-0.05818458882456671,"3":0.09115144628365546,"4":-0.031823698652944474,"5":-0.0363880335629285,"6":0.0603748298551395,"7":-0.01661596076567179,"8":0.018038384123843544,"9":0.05373380752331468,"10":-0.009948168004788701,"11":0.0273670653494276,"12":-0.04017471302518473,"13":0.1076006367758566,"14":0.0389165819020567,"15":-0.020335233198997934,"16":-0.03966605996416011,"17":-0.12408984739327275,"18":0.0003269520362864731,"19":-0.07985654660373817,"20":0.11099076363175897,"21":-0.03761877323775262,"22":0.09857013109608033,"23":0.06927003811722036,"24":0.11116351024023312,"25":-0.0424914386905732,"26":0.08823850847558906,"27":0.016803883362214216,"28":-0.016609636529202557,"29":0.046566168762740376,"30":-0.049222221311849876,"31":-0.0336788824459955,"32":-0.07592027431419635,"33":-0.04088970951806323,"34":0.016860422154552107,"35":0.0011324341202581679,"36":-0.11312567623558943,"37":0.08422345913220972,"38":0.05796707105525604,"39":0.06429617527030823,"40":0.019498415060568628,"41":0.01447698610882156,"42":-0.04926568370562774,"43":-0.03013661533092553,"44":-0.032480840303558786,"45":0.1223662389451557,"46":0.051664385500353474,"47":0.026870606006043785,"48":-0.08477352422693614,"49":0.03114489787745551,"50":0.012497216003405205,"51":0.00228231118649145,"52":-0.03119567407314804,"53":-0.09635010254349329,"54":0.002145576481156198,"55":-0.03179248531378693,"56":-0.024085006826167224,"57":0.07680295439332133,"58":-0.020243655554497926,"59":0.005766647351585494,"60":0.02826655683164783,"61":0.017144330130850934,"62":0.014702007561637285,"63":-0.0715536493958349,"64":-0.07316912835430249,"65":0.044542976277942965,"66":-0.06787102077631424,"67":0.0012493821575807152,"68":-0.00583033531155684,"69":0.050512402248561204,"70":-0.01798366269505022,"71":-0.05249787663865042,"72":-0.09148076170867453,"73":-0.10645186209783133,"74":0.014893514395707743,"75":0.03762628117763115,"76":0.014787793003782933,"77":-0.030139332866148744,"78":0.028967968207873444,"79":0.065380345948258,"80":-0.1488987688006378,"81":-0.03601927890429378,"82":0.04011648559445865,"83":0.04899182331992924,"84":0.03505471634009623,"85":-0.07973546467527655,"86":0.01484319858321254,"87":0.05337798029794097,"88":-0.02736529159833952,"89":0.04723997609464118,"90":-0.002469670601589401,"91":0.031069733116527005,"92":-0.06401781943408047,"93":0.04952432108062354,"94":-0.060788697406358394,"95":-0.05303348502923955,"96":0.03063490709345183,"97":-0.10777362497331329,"98":-0.051997354609653865,"99":0.018464689024630682,"100":0.07443366011553702,"101":-0.07684017147407965,"102":-0.04208144534991924,"103":-0.0033530459247365827,"104":0.005593407278209882,"105":0.0033313440604179467,"106":-0.017732220420938836,"107":0.004020028492244614,"108":-0.09093020005432206,"109":0.06640298692736417,"110":-0.002629823565690406,"111":-0.03345223521093042,"112":0.011324279864023302,"113":-0.07544020199285945,"114":-0.054750787875406035,"115":0.0035049115767717288,"116":-0.01376947768379565,"117":0.04644268643578155,"118":-0.12441551213359511,"119":0.026089036632832283,"120":0.04407671349555144,"121":0.05529224536699923,"122":-0.005481480393857138,"123":-0.028850792019569572,"124":0.027600449335930866,"125":0.010584982096604736,"126":-0.026712659506744993,"127":0.001493420897139464,"128":-0.006744851883818035,"129":0.008312490580038226,"130":0.006416202698418448,"131":-0.06002365162526847,"132":-0.007457174113579268,"133":0.08408560217542567,"134":-0.0922719185478062,"135":0.04479587219740294,"136":-0.016201235226944295,"137":-0.09217383577430206,"138":-0.0006888608819269858,"139":0.0067854650326106295,"140":-0.051314615732393515,"141":0.016770184441789328,"142":-0.033855242638889754,"143":-0.07770417497984304,"144":0.04166815466080404,"145":0.07375594059621429,"146":0.08592953715172834,"147":-0.03762121149928976,"148":-0.03877254321028048,"149":0.09992034104003805,"150":0.024610203864653776,"151":-0.005312907492819243,"152":-0.09033497131909601,"153":-0.018690206775185788,"154":0.016631727268098164,"155":-0.029067287941488006,"156":0.003341089856373519,"157":-0.009748947019727356,"158":-0.0760952829359997,"159":-0.012157446845123553,"160":0.017340694368964127,"161":-0.025896535990930024,"162":-0.014623403146369968,"163":-0.0754135730158192,"164":0.017375640794508804,"165":-0.08853055815351729,"166":0.0004984664107827218,"167":-0.025949833640719934,"168":0.008861808153843763,"169":0.05745706149906415,"170":0.005114789555155903,"171":-0.050479721061988024,"172":-0.051790639247081514,"173":-0.08890182695101614,"174":-0.0018909770007487794,"175":0.003919931354693627,"176":0.03884134651373763,"177":0.09421728690034363,"178":-0.05596328960950555,"179":0.0483525690881664,"180":0.08195624816093469,"181":-0.0809208630458948,"182":-0.10399555412842096,"183":0.05974946857826956,"184":-0.05396603303095241,"185":0.03866224649092858,"186":-0.013515082425915507,"187":0.03790585603558515,"188":-0.031664789969305,"189":-0.07264280071514682,"190":-0.04300517004649399,"191":-0.05598222487323625,"192":0.014566242091650935,"193":-0.07651282344372085,"194":0.060629981870958236,"195":-0.027839083444503768,"196":0.07391159121714372,"197":-0.032438690517963054,"198":-0.05855358469199601,"199":0.052103097524439486,"200":-0.021127144355976086,"201":-0.04562914585169881,"202":-0.02620047057151549,"203":-0.00016500949904674125,"204":-0.05516984775161943,"205":0.035512398049900716,"206":-0.04612381610272847,"207":-0.035630832959893916,"208":-0.07238812658048022,"209":0.040020023534536826,"210":-0.10205301634376127,"211":-0.06796360543029416,"212":0.0637848029314983,"213":-0.006495744582724264,"214":0.003352138940663779,"215":0.0027975666984309134,"216":0.027142159602563696,"217":0.007448136203205435,"218":0.009255757474720528,"219":0.06390761757371506,"220":0.08747938526925242,"221":0.008333144822980913,"222":-0.02484319061480116,"223":0.019887512888305058,"224":0.0458991438904029,"225":0.04178058133395921,"226":0.0020401862293432005,"227":-0.06350520532476711,"228":0.05402334300286205,"229":0.0596293642067333,"230":0.008223302349489148,"231":-0.026978209566071602,"232":-0.041782777762855924,"233":0.014288805651578711,"234":-0.033068878262050655,"235":-0.10096389140903676,"236":0.04868668652682559,"237":-0.004309023669693427,"238":0.013241468454076973,"239":-0.07254319902671454,"240":0.056553907972239956,"241":-0.0425006449589429,"242":0.02611602565980039,"243":-0.01555555157217785,"244":-0.05688486237507834,"245":-0.059326231837539795,"246":-0.060800912136070695,"247":0.07183993329517553,"248":0.014634295602014003,"249":0.03210437035186659,"250":0.08401543107332428,"251":-0.054694803250526364,"252":-0.08430839528275064,"253":0.05156486843436313,"254":0.043575921634600216,"255":-0.07865871178000462,"256":-0.05686970088637188,"257":-0.036521430495842194,"258":-0.05121424433215931,"259":-0.013734245421188349,"260":-0.01429923843732914,"261":-0.08539734080807627,"262":0.021696678837596864,"263":0.030564916450748734,"264":-0.037289552130843215,"265":-0.032593017836187496,"266":0.032444871883031155,"267":-0.055653266915373104,"268":0.024402159683572722,"269":0.0638721039649522,"270":-0.013558029617337958,"271":-0.058981566385770456,"272":0.016338003501799092,"273":-0.006061049764524061,"274":-0.009953516763735753,"275":0.06120259253840898,"276":0.023115553660204152,"277":0.018138959239701075,"278":-0.040086199074831935,"279":0.026330360331621193,"280":-0.034371720415182376,"281":0.02785599167858572,"282":-0.04558175132039874,"283":0.06453811325404381,"284":-0.026048284844532168,"285":-0.06477964563204126,"286":-0.07442993252947572,"287":-0.03077030255927977,"288":-0.00263115644515565,"289":0.00929565245212429,"290":-0.1415106146101921,"291":-0.08694892667614852,"292":-0.016732370425932015,"293":0.17064146451315668,"294":0.08633963998900043,"295":0.08847844778586121,"296":-0.053505481187447475,"297":0.03542110859564883,"298":0.03123158896439704,"299":0.06004288863272378,"300":0.019608718288478398,"301":-0.03397148447478394,"302":-0.04130520477308144,"303":-0.0194535169997672,"304":0.03935808378860379,"305":0.050319093767780904,"306":0.10922278900406852,"307":0.015680472210394786,"308":0.025788159856157653,"309":0.14607998260112598,"310":-0.07244460947012943,"311":-0.038620011748344917,"312":0.005016529634700025,"313":-0.0025308924923171296,"314":-0.12103369243395208,"315":-0.023115411189411256,"316":0.05551905467452295,"317":0.0025044965111280498,"318":-0.06232736655191064,"319":-0.05482685781316732,"320":-0.027469837350169078,"321":0.009202923599694539,"322":-0.01983045363359566,"323":0.02012090740858805,"324":-0.008857572532857533,"325":-0.09329804337429287,"326":-0.04469848183722679,"327":0.030771849751451252,"328":0.09841582551530542,"329":-0.01647740453453015,"330":-0.10752207710471988,"331":0.045615320964151995,"332":0.024157580835124835,"333":-0.007433673316906446,"334":-0.030041783134740697,"335":-0.08800821919051857,"336":0.008085708752070903,"337":-0.12180413948612057,"338":0.005380095681854002,"339":-0.00689491087581214,"340":0.0178297468902801,"341":0.06066645799909627,"342":-0.1645989848464056,"343":0.023335896238655576,"344":-0.003971214549584494,"345":-0.04061855245545819,"346":-0.03396203156686473,"347":0.00009476184324088387,"348":-0.07059932251786405,"349":-0.02406806395047207,"350":-0.0012248199649339425,"351":-0.05942559456386865,"352":0.08685580376645248,"353":-0.022787933464512338,"354":-0.05476920741175287,"355":0.003083815722719134,"356":0.0737895230973477,"357":0.10939965307016125,"358":-0.1095898819545899,"359":0.04658071670150401,"360":-0.015439492543028014,"361":0.03887892453406227,"362":-0.004668830615436575,"363":0.017402332385251962,"364":0.046980733541341774,"365":0.03449619358266873,"366":0.0011986581393501686,"367":-0.016116468930903845,"368":0.15580235119922586,"369":0.06557724444960279,"370":0.044100583935154335,"371":0.049796367782233994,"372":-0.12081340507247984,"373":0.10557673864850739,"374":-0.04366405334330884,"375":-0.008930450221080515,"376":-0.08350634445018973,"377":-0.08857046825463885,"378":0.016360457837930817,"379":-0.0617543132439062,"380":-0.013130308952479994,"381":0.019297419989229125,"382":0.002804100577282513,"383":-0.05674081821952639,"384":0.03373192168775838,"385":0.1198372664709699,"386":0.003178940747343419,"387":-0.037484482551757035,"388":-0.02201826590704289,"389":0.017896849748299713,"390":0.014212291623043643,"391":0.01719032985006503,"392":-0.050629915408897844,"393":-0.009824122063931507,"394":-0.04583938322022196,"395":-0.10713110239861,"396":-0.01979541810258703,"397":0.0038848463983288967,"398":-0.06330521167272486,"399":-0.004657674869505021}},{"sx":5,"sy":5,"depth":16,"w":{"0":-0.10244020184765598,"1":0.05691183326941872,"2":0.014052535672116295,"3":0.011152737602184371,"4":-0.0743232957719588,"5":-0.0530579168873567,"6":0.011967023544984383,"7":0.06687240586811624,"8":0.04983811383321137,"9":-0.024086053962970415,"10":-0.05148949413615872,"11":0.033365118308405904,"12":-0.08747120240378262,"13":0.008540554338820472,"14":-0.04943667487332063,"15":-0.10657019928552289,"16":-0.03039824664569802,"17":-0.03594241799832804,"18":-0.010706254374361372,"19":0.025105347809744313,"20":-0.050907150512262925,"21":-0.09570849966437835,"22":0.007603854732880545,"23":0.06898384049528378,"24":-0.07373194929764697,"25":-0.005271743246603189,"26":-0.0031041132094476926,"27":-0.041128153491165546,"28":0.005594044251537169,"29":-0.04243484585104641,"30":0.05011935839955994,"31":-0.030639396918679656,"32":0.0215738365595557,"33":0.04361189002521729,"34":-0.05116831313351137,"35":0.008905092426955955,"36":0.004757398828789766,"37":-0.0750683822426169,"38":0.01448329036914896,"39":0.023975489640757366,"40":-0.010165805168861293,"41":-0.050009621883178285,"42":0.022228160408374067,"43":-0.015726230737620642,"44":-0.04962326825435092,"45":-0.023321110030456674,"46":-0.11687047096299602,"47":0.017042287155656942,"48":-0.008150130468597515,"49":-0.04145754428954657,"50":-0.088375625009689,"51":-0.12965833992467793,"52":-0.06805577321869748,"53":-0.1088259476456793,"54":0.030876029321921378,"55":0.017698899316300025,"56":0.08747132966937998,"57":0.02267733882652899,"58":-0.007037210702758002,"59":0.04172188840153261,"60":0.028313663644127768,"61":-0.08656471507266875,"62":-0.029212111295458087,"63":-0.023641486448848777,"64":-0.0802318375543377,"65":0.049523384604377364,"66":0.027996068118022115,"67":-0.0664378754519369,"68":0.06749683189363534,"69":0.02818741143017627,"70":-0.11944890894467201,"71":-0.023056851343406234,"72":-0.07975337363138728,"73":-0.011497596020802579,"74":0.03058585324723688,"75":-0.048276141141839715,"76":0.03332947544193448,"77":-0.0078571564721726,"78":0.011505818360399449,"79":0.03851272351804906,"80":-0.04037696954090507,"81":0.016928562639597085,"82":-0.040583491718632715,"83":0.06253214420894865,"84":-0.01801321070377192,"85":0.0509747011096475,"86":0.027668538818362457,"87":0.023243138054393462,"88":0.017206778992417168,"89":0.02384972072039166,"90":-0.030621174583276515,"91":-0.057498582650148095,"92":0.07046892694134993,"93":-0.027392613991201766,"94":0.024809301857729303,"95":-0.048867713079088916,"96":-0.019246209055418684,"97":-0.15053502128171983,"98":-0.04076641064110591,"99":0.057046244512155564,"100":-0.0676898066245997,"101":0.053231586418674155,"102":0.009922330376747772,"103":0.013484802330877892,"104":-0.026371509997853287,"105":0.0324528216131304,"106":-0.05824007951655755,"107":-0.10194742078972535,"108":-0.05006524395709449,"109":-0.05964461574361546,"110":0.047803800112632126,"111":-0.07594764185287307,"112":-0.031553922138810524,"113":0.006703480354790641,"114":-0.0026736964319685743,"115":-0.05559424350849097,"116":-0.025630631773933762,"117":0.033272624151156116,"118":0.009296251355474985,"119":0.05601791228193076,"120":-0.03389232594890394,"121":0.004365199350174225,"122":-0.07755438059862661,"123":-0.1451546178690475,"124":-0.04108816343029525,"125":-0.0004551231644878733,"126":0.02302837997085029,"127":-0.07293743151868157,"128":-0.06190019776704229,"129":-0.08646173002423481,"130":-0.03315162015131273,"131":0.02120204544253347,"132":-0.025726788427525866,"133":-0.035935494039026315,"134":-0.06128923569990888,"135":-0.009328998785874116,"136":0.018916248151847212,"137":0.07878751687952651,"138":-0.09119384972429392,"139":0.04639494411262123,"140":-0.011263431217842824,"141":-0.06025842024270313,"142":-0.02025532258756454,"143":0.0482346953404876,"144":-0.054457636278008724,"145":-0.009972537892439133,"146":0.058452358908291285,"147":-0.0071364393948753135,"148":0.06445018533899462,"149":0.0012954002932696693,"150":-0.024364333094802043,"151":-0.07223257260647824,"152":-0.03100987567411254,"153":-0.03930032923488571,"154":0.052299752369094746,"155":-0.041035214293055296,"156":-0.07581537710160804,"157":0.02276903581311471,"158":0.06490405688888365,"159":-0.06649713791849042,"160":-0.058959287636565966,"161":0.027545062343513026,"162":-0.009373548335739824,"163":-0.03162076382075138,"164":0.0029741707328765545,"165":0.023988822155988673,"166":-0.011660739920733649,"167":0.013596753779172115,"168":-0.08461052227771758,"169":0.04978745093879708,"170":0.06578044624980497,"171":-0.004175198725926195,"172":-0.0313647809864105,"173":0.0707417806852566,"174":-0.022854236055380277,"175":0.011368993561310404,"176":0.05590473758591974,"177":0.049162433872595106,"178":-0.0477219926864459,"179":-0.05104258084336659,"180":-0.03284408842671238,"181":0.0014958490687680536,"182":-0.03194997551165486,"183":0.04250437772550349,"184":0.040374769336859524,"185":-0.007048882254514442,"186":-0.04812878994996075,"187":-0.04143300454380716,"188":-0.028091717771532076,"189":-0.050893569595338674,"190":0.035970619574727546,"191":-0.02115452859122777,"192":0.060125865355667545,"193":0.028158473118749937,"194":-0.02955290490342002,"195":-0.026845090927363823,"196":-0.047850555289642445,"197":0.016550523685947185,"198":0.09090895160812831,"199":0.044573682785164805,"200":-0.03992609785134656,"201":-0.033580575572731496,"202":0.020215410136177593,"203":-0.06796378906348308,"204":0.045250116967955105,"205":-0.0386625734945199,"206":-0.09238352074657093,"207":-0.025480684613257643,"208":-0.08248181585493566,"209":-0.023705728879406796,"210":-0.03522266106769038,"211":-0.08863219157923022,"212":-0.06382909975422393,"213":-0.010725986603892637,"214":-0.07438616621274943,"215":-0.021460473594579203,"216":-0.015139505235528213,"217":-0.04861209818403736,"218":-0.010710849178741152,"219":0.011578031150851048,"220":0.004581452676082606,"221":0.018810839446323162,"222":-0.03647434665111055,"223":0.04657581787406259,"224":0.06102644625149286,"225":0.06176895799273686,"226":-0.053555446331006014,"227":-0.12698121630663414,"228":0.0048734830476691296,"229":0.06169834567471138,"230":-0.028043615239860178,"231":-0.029631856400071474,"232":0.09311314569145197,"233":-0.034507223276758404,"234":0.014649271355324615,"235":0.1537848165904899,"236":-0.016884473975689502,"237":-0.05120443482534501,"238":0.021679777863389774,"239":-0.09161442932139585,"240":-0.034178608940337314,"241":0.0737724863451118,"242":0.01193693472577889,"243":0.03604859037098086,"244":-0.11152126187230098,"245":-0.043416766705500834,"246":0.08980898108458882,"247":-0.000297946587380053,"248":-0.03337062644507434,"249":-0.13105724449749587,"250":0.06696246197275393,"251":-0.028153973822739615,"252":-0.06576311116386517,"253":-0.03294747702803812,"254":0.012611668860763653,"255":0.028498015365540297,"256":0.01904932995090216,"257":0.0833521043900437,"258":-0.022660181880845502,"259":0.020281774636454003,"260":0.03427037611395667,"261":0.09401592053689814,"262":0.015118028643886795,"263":-0.057229050416145975,"264":0.04135875634999431,"265":-0.03697636484444099,"266":-0.07407263984200615,"267":-0.04331394906271804,"268":0.031244538214533036,"269":-0.0004988126316932677,"270":0.01594180980782209,"271":-0.03144709606317581,"272":-0.026654850001797386,"273":-0.04125564131319028,"274":-0.0665930341544667,"275":-0.07164862528278534,"276":-0.0538653796762811,"277":-0.09348541821270956,"278":0.040142090654520686,"279":-0.06044273590076113,"280":0.10568166718303963,"281":-0.07786181998798844,"282":-0.019818312573016045,"283":0.0028121967862117818,"284":-0.005074316398155592,"285":-0.06356432831313907,"286":-0.027457516960140156,"287":0.030105920373882267,"288":0.027389997932699178,"289":-0.014385766175293267,"290":-0.026116327662983833,"291":-0.0018023153404016184,"292":0.034498728577273235,"293":-0.014991662143924377,"294":-0.019434839219798543,"295":0.07399194491575802,"296":-0.05288211074579067,"297":-0.08768174378859009,"298":0.0511280735686944,"299":0.014090343446182865,"300":0.02001212088075049,"301":-0.03321558220230517,"302":-0.05894106817511483,"303":0.03506595146451966,"304":0.018813239279037657,"305":0.1317076160201552,"306":0.09963538038593188,"307":0.03453666166173732,"308":0.020347836703847887,"309":-0.055057405873446826,"310":-0.03156583069502546,"311":-0.03800730096553617,"312":-0.0034736200551701876,"313":0.04351728506418514,"314":-0.0165411384504184,"315":-0.11203170374223625,"316":0.09665590759182392,"317":-0.03513994828928244,"318":0.059382061380122565,"319":-0.02400425343349854,"320":-0.061415942608867125,"321":-0.09348102598269546,"322":0.00510716376112031,"323":-0.046521039347383795,"324":-0.03747751043735754,"325":-0.12228530579345005,"326":-0.03653185844657149,"327":0.056605268613460144,"328":0.03901566279986089,"329":0.07031272333700772,"330":0.06019764562634701,"331":-0.05749737920872071,"332":-0.009260730067495842,"333":0.017616691570523296,"334":-0.015792503370643324,"335":-0.10400965533395885,"336":-0.085290937364109,"337":0.05749173775373751,"338":-0.028262596955258876,"339":0.006766941098408336,"340":-0.05334686131314396,"341":-0.01508177384692112,"342":-0.04595981626427609,"343":-0.036085873405195854,"344":0.01710902667184254,"345":-0.005481650936558655,"346":0.03934896131925523,"347":0.005749924959148571,"348":0.01840398970760699,"349":0.04205880727962628,"350":-0.003869725852398919,"351":0.0026375899344749446,"352":0.015452404695266687,"353":0.015292362263626222,"354":-0.03367593073304608,"355":0.008347213468584688,"356":-0.012560934039948702,"357":0.029948669987170447,"358":0.039824053562249585,"359":-0.03416697470387075,"360":-0.061859987048340156,"361":0.05557020185804112,"362":0.0013357005240234384,"363":-0.003151521668260006,"364":0.005959939064726128,"365":0.0022448724313493896,"366":0.021303415560321035,"367":-0.008160182520866328,"368":0.057221798492869694,"369":0.08172855597833024,"370":-0.01291654781491249,"371":-0.15476828978801369,"372":0.049846005702686526,"373":0.09339394653149863,"374":-0.0033716292479320704,"375":-0.007814705682969346,"376":-0.06467034781324807,"377":-0.024161817441594576,"378":0.06854459063292397,"379":-0.0246459001996881,"380":0.01729685354508706,"381":0.010804745448596392,"382":-0.034467973696009555,"383":-0.13612525954878194,"384":-0.04700106605828778,"385":-0.09065160831110398,"386":0.06667030161475275,"387":-0.01777693002713113,"388":-0.014783840332901662,"389":-0.11329244462740531,"390":0.004589977263577962,"391":0.029890869452866446,"392":-0.07738212165439179,"393":-0.062325972836868575,"394":-0.09166733645053836,"395":0.022904675035270678,"396":-0.06859380567583429,"397":-0.02317766957239815,"398":-0.008803135648803634,"399":-0.05473360367305898}},{"sx":5,"sy":5,"depth":16,"w":{"0":-0.02611195093451749,"1":0.010858844977681829,"2":0.009967977443463684,"3":-0.04896548213140644,"4":-0.021242542216058573,"5":0.00032135714969597554,"6":0.10250480025600675,"7":-0.033878607672357605,"8":-0.05237277963068351,"9":-0.0765650823640542,"10":0.06901553529182373,"11":0.02857256385601875,"12":-0.0212124149246812,"13":-0.007990251619139773,"14":0.00005160935271995596,"15":0.0124184946663172,"16":-0.054164524857940446,"17":0.055603883108375676,"18":0.012409324035349133,"19":0.030319560212263647,"20":-0.03157052879923774,"21":0.032985576349649375,"22":-0.02196985160830952,"23":-0.05372075445469606,"24":0.01736216328574201,"25":0.0860906941079548,"26":-0.0680538565166238,"27":-0.0844686148802787,"28":-0.08286672186163868,"29":-0.061034472575563194,"30":-0.030023710313443405,"31":-0.037473608557717045,"32":0.005062692913114295,"33":-0.005317007412839146,"34":0.020008801774534395,"35":-0.08197679277170801,"36":0.026077380708405377,"37":-0.1009227108122812,"38":-0.017399492989347103,"39":0.04799488403417988,"40":-0.05214535249919625,"41":-0.03444103135729301,"42":-0.05678500688263574,"43":-0.09004759808242606,"44":-0.02540306290902673,"45":0.09312379444996796,"46":-0.012249958603967404,"47":-0.07831739436303939,"48":-0.0076049456278155176,"49":-0.044132982617560254,"50":0.04403350978819493,"51":-0.01100813403802092,"52":-0.0432752736519485,"53":0.03081130902939059,"54":0.004485550885548689,"55":-0.08138276825791269,"56":0.022376472500736804,"57":-0.01773763480380633,"58":0.043505412004250114,"59":0.005162418592196777,"60":-0.03055396989572142,"61":-0.0013386747890444055,"62":-0.007937885118771762,"63":0.005086482015192777,"64":-0.0196683119584826,"65":-0.027347068031266984,"66":0.017836962450293394,"67":-0.02790778573477608,"68":-0.010250420986235527,"69":0.0005465848285952759,"70":-0.06813806049623099,"71":-0.046402389364383255,"72":-0.0426133761603848,"73":0.08654401491066527,"74":0.019318159598318323,"75":-0.07797998708857377,"76":-0.07728994757145775,"77":-0.014670720763604568,"78":0.020879621222457782,"79":-0.08935414003290496,"80":-0.010457112453630018,"81":0.007197694952134628,"82":-0.05950353754337497,"83":0.0003955886062804897,"84":0.0040236356040892025,"85":-0.12190708709720313,"86":0.02491537877268152,"87":0.028893506412061676,"88":0.036050714093784256,"89":-0.14414262960636806,"90":-0.007410544667023168,"91":-0.1279410933012294,"92":-0.07230820712792412,"93":0.030624741355575108,"94":0.06315680186898276,"95":-0.01170172773652369,"96":0.03888643116206989,"97":0.019230071090452515,"98":0.020181909334179345,"99":-0.04110519644278078,"100":-0.014123067553104713,"101":0.061354226456472365,"102":-0.06479103899092926,"103":0.048325046474145275,"104":-0.05161894879353853,"105":-0.061083274967841564,"106":-0.0027042526798777347,"107":-0.003920731265200453,"108":0.10027483043445395,"109":0.010655722868590567,"110":-0.12337274709358784,"111":-0.04620990755502743,"112":-0.02226454121290404,"113":0.04153703489975364,"114":0.024123386986543795,"115":-0.05354911459100284,"116":-0.02128132226892419,"117":-0.03877309730900846,"118":-0.11977472317382107,"119":0.005605764911226539,"120":-0.026376479484333335,"121":0.022457617141445833,"122":-0.05593692679518772,"123":0.016135651531463357,"124":-0.06532729213678741,"125":-0.002317798432453951,"126":-0.060003850024671394,"127":-0.011848636242198722,"128":-0.07783032093854282,"129":0.044451208484305275,"130":-0.0019227258587319732,"131":-0.028091414609473554,"132":0.06350141196324446,"133":-0.04101602310223733,"134":0.0414520141610693,"135":0.02160028885626954,"136":-0.08077023315101514,"137":-0.009304998991511862,